{"learner":{"attributes":{"scikit_learn":"{\"_estimator_type\": \"classifier\"}"},"feature_names":["spread","velocity_100ms","velocity_500ms","velocity_1s","volatility"],"feature_types":["float","float","float","float","float"],"gradient_booster":{"model":{"cats":{"enc":[],"feature_segments":[],"sorted_idx":[]},"gbtree_model_param":{"num_parallel_tree":"1","num_trees":"450"},"iteration_indptr":[0,3,6,9,12,15,18,21,24,27,30,33,36,39,42,45,48,51,54,57,60,63,66,69,72,75,78,81,84,87,90,93,96,99,102,105,108,111,114,117,120,123,126,129,132,135,138,141,144,147,150,153,156,159,162,165,168,171,174,177,180,183,186,189,192,195,198,201,204,207,210,213,216,219,222,225,228,231,234,237,240,243,246,249,252,255,258,261,264,267,270,273,276,279,282,285,288,291,294,297,300,303,306,309,312,315,318,321,324,327,330,333,336,339,342,345,348,351,354,357,360,363,366,369,372,375,378,381,384,387,390,393,396,399,402,405,408,411,414,417,420,423,426,429,432,435,438,441,444,447,450],"tree_info":[0,1,2,0,1,2,0,1,2,0,1,2,0,1,2,0,1,2,0,1,2,0,1,2,0,1,2,0,1,2,0,1,2,0,1,2,0,1,2,0,1,2,0,1,2,0,1,2,0,1,2,0,1,2,0,1,2,0,1,2,0,1,2,0,1,2,0,1,2,0,1,2,0,1,2,0,1,2,0,1,2,0,1,2,0,1,2,0,1,2,0,1,2,0,1,2,0,1,2,0,1,2,0,1,2,0,1,2,0,1,2,0,1,2,0,1,2,0,1,2,0,1,2,0,1,2,0,1,2,0,1,2,0,1,2,0,1,2,0,1,2,0,1,2,0,1,2,0,1,2,0,1,2,0,1,2,0,1,2,0,1,2,0,1,2,0,1,2,0,1,2,0,1,2,0,1,2,0,1,2,0,1,2,0,1,2,0,1,2,0,1,2,0,1,2,0,1,2,0,1,2,0,1,2,0,1,2,0,1,2,0,1,2,0,1,2,0,1,2,0,1,2,0,1,2,0,1,2,0,1,2,0,1,2,0,1,2,0,1,2,0,1,2,0,1,2,0,1,2,0,1,2,0,1,2,0,1,2,0,1,2,0,1,2,0,1,2,0,1,2,0,1,2,0,1,2,0,1,2,0,1,2,0,1,2,0,1,2,0,1,2,0,1,2,0,1,2,0,1,2,0,1,2,0,1,2,0,1,2,0,1,2,0,1,2,0,1,2,0,1,2,0,1,2,0,1,2,0,1,2,0,1,2,0,1,2,0,1,2,0,1,2,0,1,2,0,1,2,0,1,2,0,1,2,0,1,2,0,1,2,0,1,2,0,1,2,0,1,2,0,1,2,0,1,2,0,1,2,0,1,2,0,1,2,0,1,2,0,1,2,0,1,2,0,1,2,0,1,2,0,1,2,0,1,2,0,1,2,0,1,2,0,1,2,0,1,2,0,1,2,0,1,2,0,1,2,0,1,2,0,1,2,0,1,2,0,1,2,0,1,2,0,1,2,0,1,2,0,1,2],"trees":[{"base_weights":[1.3087533E-6,1.8015294E-1,-1.4922085E-1,7.3618986E-2,4.8985767E-1,-2.492337E-1,3.028807E-2,2.4336794E-1,-6.523304E-2,-4.1970223E-1,6.1258537E-1,-2.9671457E-1,1.1977601E-1,5.131433E-1,-6.099307E-2,-3.9304093E-1,3.6227012E-1,-3.8239518E-1,1.0766745E-1,2.7176742E-2,-4.308961E-2,6.8454665E-1,8.4456205E-2,1.951255E-1,-3.566273E-1,-9.1265306E-2,4.5811576E-1,9.58705E-3,3.974157E-2,3.4161732E-1,-1.3413517E-1,-3.9152425E-2,1.2896955E-2,5.557562E-4,2.7527956E-2,-2.8354853E-2,2.6228145E-2,-5.7575433E-3,1.8757403E-2,7.0572565E-3,3.521608E-2,-1.6352208E-2,3.0216439E-2,1.7583648E-2,-3.3181712E-2,-1.5847733E-2,-4.69097E-2,3.0216439E-2,-1.5670696E-2,3.529158E-2,-3.3383116E-3,-1.6352208E-2,2.7176742E-2,2.8210117E-2,-2.0115687E-2,-2.89453E-2,1.9543066E-4],"categories":[],"categories_nodes":[],"categories_segments":[],"categories_sizes":[],"default_left":[0,0,0,0,0,0,0,0,0,0,0,0,0,0,0,0,0,0,0,0,0,0,0,0,0,0,0,0,0,0,0,0,0,0,0,0,0,0,0,0,0,0,0,0,0,0,0,0,0,0,0,0,0,0,0,0,0],"id":0,"left_children":[1,3,5,7,9,11,13,15,17,19,21,23,25,27,29,31,33,35,37,-1,-1,39,41,43,45,47,49,51,-1,53,55,-1,-1,-1,-1,-1,-1,-1,-1,-1,-1,-1,-1,-1,-1,-1,-1,-1,-1,-1,-1,-1,-1,-1,-1,-1,-1],"loss_changes":[1.0487446E1,5.795413E0,3.8383465E0,3.1432257E0,5.287017E0,2.4383402E0,3.4356017E0,4.6758804E0,4.0866704E0,3.0023634E0,1.4665251E0,3.6585026E0,1.209016E0,1.7493064E0,1.9850082E0,2.7182336E0,3.3659391E0,4.694394E0,2.9352617E0,0E0,0E0,2.7839088E-1,1.4706213E0,2.098197E0,2.2156944E0,1.8738879E0,8.851876E-1,1.1583432E0,0E0,1.950089E0,3.4679084E0,0E0,0E0,0E0,0E0,0E0,0E0,0E0,0E0,0E0,0E0,0E0,0E0,0E0,0E0,0E0,0E0,0E0,0E0,0E0,0E0,0E0,0E0,0E0,0E0,0E0,0E0],"parents":[2147483647,0,0,1,1,2,2,3,3,4,4,5,5,6,6,7,7,8,8,9,9,10,10,11,11,12,12,13,13,14,14,15,15,16,16,17,17,18,18,21,21,22,22,23,23,24,24,25,25,26,26,27,27,29,29,30,30],"right_children":[2,4,6,8,10,12,14,16,18,20,22,24,26,28,30,32,34,36,38,-1,-1,40,42,44,46,48,50,52,-1,54,56,-1,-1,-1,-1,-1,-1,-1,-1,-1,-1,-1,-1,-1,-1,-1,-1,-1,-1,-1,-1,-1,-1,-1,-1,-1,-1],"split_conditions":[4.9922398E-1,2.794755E0,1.2438152E0,1.9141811E0,-3.123084E0,1.0301017E1,2.0423253E0,1.230104E0,2.1327116E0,-4.7413683E0,2.8404882E0,-2.6167912E0,3.0282385E0,7.884882E-1,4.3773763E-2,3.085796E0,-1.1009039E0,-3.9707285E-1,3.3434591E0,2.7176742E-2,-4.308961E-2,-2.9300268E0,-1.2700298E0,7.31835E0,8.724806E0,1.3705019E0,1.162185E1,4.897492E0,3.974157E-2,2.949253E0,3.1492007E0,-3.9152425E-2,1.2896955E-2,5.557562E-4,2.7527956E-2,-2.8354853E-2,2.6228145E-2,-5.7575433E-3,1.8757403E-2,7.0572565E-3,3.521608E-2,-1.6352208E-2,3.0216439E-2,1.7583648E-2,-3.3181712E-2,-1.5847733E-2,-4.69097E-2,3.0216439E-2,-1.5670696E-2,3.529158E-2,-3.3383116E-3,-1.6352208E-2,2.7176742E-2,2.8210117E-2,-2.0115687E-2,-2.89453E-2,1.9543066E-4],"split_indices":[3,4,1,4,1,3,3,4,4,1,1,1,0,3,2,0,1,3,0,0,0,1,2,3,3,0,3,2,0,1,2,0,0,0,0,0,0,0,0,0,0,0,0,0,0,0,0,0,0,0,0,0,0,0,0,0,0],"split_type":[0,0,0,0,0,0,0,0,0,0,0,0,0,0,0,0,0,0,0,0,0,0,0,0,0,0,0,0,0,0,0,0,0,0,0,0,0,0,0,0,0,0,0,0,0,0,0,0,0,0,0,0,0,0,0,0,0],"sum_hessian":[3.8812E2,1.7574312E2,2.1237689E2,1.3168358E2,4.405954E1,1.3613904E2,7.623786E1,5.891107E1,7.27725E1,4.95051E0,3.910903E1,1.2079245E2,1.5346581E1,1.1386173E1,6.4851685E1,8.910918E0,5.0000153E1,2.5247602E1,4.75249E1,1.4851531E0,3.4653573E0,3.415852E1,4.95051E0,1.2871326E1,1.0792113E2,9.90102E0,5.4455614E0,4.455459E0,6.9307146E0,9.40597E0,5.5445717E1,5.4455614E0,3.4653573E0,1.7821836E1,3.2178318E1,2.1287193E1,3.9604082E0,2.6237705E1,2.1287193E1,1.4851531E0,3.2673367E1,2.9703062E0,1.9802041E0,1.1386173E1,1.4851531E0,1.0247556E2,5.4455614E0,1.9802041E0,7.9208164E0,3.4653573E0,1.9802041E0,2.9703062E0,1.4851531E0,7.4257655E0,1.9802041E0,1.2376276E1,4.306944E1],"tree_param":{"num_deleted":"0","num_feature":"5","num_nodes":"57","size_leaf_vector":"1"}},{"base_weights":[-2.0933606E-7,6.247824E-1,-4.349706E-2,7.8544277E-1,-2.9456246E-1,-1.2062928E-1,1.0677252E-1,8.775024E-1,-4.510246E-3,1.4505895E-3,-2.2927059E-2,3.182167E-2,-2.6826382E-1,1.4851555E-1,-3.367772E-1,4.4751644E-1,1.1460524E0,-8.188481E-2,4.0206018E-1,-1.290445E-1,-4.740644E-1,5.5618083E-1,1.0592706E-1,-2.9946357E-2,4.0954363E-2,4.3212272E-2,-5.5284016E-3,6.885602E-2,2.2761626E-2,-5.9361854E-3,5.074019E-2,-7.955625E-3,2.8749457E-2,-6.223746E-4,-2.9660357E-2,-2.6994959E-2,-4.4972165E-3,5.0981104E-2,-1.4728123E-2,-6.2116557E-3,8.655433E-3,-2.0419925E-2,1.5852975E-2],"categories":[],"categories_nodes":[],"categories_segments":[],"categories_sizes":[],"default_left":[0,0,0,0,0,0,0,0,0,0,0,0,0,0,0,0,0,0,0,0,0,0,0,0,0,0,0,0,0,0,0,0,0,0,0,0,0,0,0,0,0,0,0],"id":1,"left_children":[1,3,5,7,9,11,13,15,-1,-1,-1,17,19,21,23,25,27,29,31,33,35,37,39,-1,41,-1,-1,-1,-1,-1,-1,-1,-1,-1,-1,-1,-1,-1,-1,-1,-1,-1,-1],"loss_changes":[9.188842E0,3.481944E0,3.6768494E0,1.6113081E0,2.2559822E-1,4.7206445E0,2.0450795E0,1.4838362E0,0E0,0E0,0E0,4.406733E0,2.989255E0,1.6630104E0,9.726231E-1,2.0231838E0,9.698782E-1,3.3652563E0,2.476808E0,3.503943E0,1.028388E0,3.9062636E0,1.429103E0,0E0,7.3228014E-1,0E0,0E0,0E0,0E0,0E0,0E0,0E0,0E0,0E0,0E0,0E0,0E0,0E0,0E0,0E0,0E0,0E0,0E0],"parents":[2147483647,0,0,1,1,2,2,3,3,4,4,5,5,6,6,7,7,11,11,12,12,13,13,14,14,15,15,16,16,17,17,18,18,19,19,20,20,21,21,22,22,24,24],"right_children":[2,4,6,8,10,12,14,16,-1,-1,-1,18,20,22,24,26,28,30,32,34,36,38,40,-1,42,-1,-1,-1,-1,-1,-1,-1,-1,-1,-1,-1,-1,-1,-1,-1,-1,-1,-1],"split_conditions":[1.3197784E0,3.8067665E0,3.929202E0,2.5932312E0,1.7799008E0,-2.7473736E-1,9.536236E0,-3.110763E-1,-4.510246E-3,1.4505895E-3,-2.2927059E-2,3.9307961E0,3.4671345E0,-2.8905709E0,4.6983323E0,-1.2691507E0,1.3004627E0,-3.5228524E-1,-4.739507E0,2.810395E0,2.6583047E0,5.592859E0,5.244462E0,-2.9946357E-2,1.7152431E0,4.3212272E-2,-5.5284016E-3,6.885602E-2,2.2761626E-2,-5.9361854E-3,5.074019E-2,-7.955625E-3,2.8749457E-2,-6.223746E-4,-2.9660357E-2,-2.6994959E-2,-4.4972165E-3,5.0981104E-2,-1.4728123E-2,-6.2116557E-3,8.655433E-3,-2.0419925E-2,1.5852975E-2],"split_indices":[4,3,3,2,0,1,2,1,0,0,0,0,0,2,4,1,1,1,2,4,1,3,3,0,1,0,0,0,0,0,0,0,0,0,0,0,0,0,0,0,0,0,0],"split_type":[0,0,0,0,0,0,0,0,0,0,0,0,0,0,0,0,0,0,0,0,0,0,0,0,0,0,0,0,0,0,0,0,0,0,0,0,0,0,0,0,0,0,0],"sum_hessian":[3.361225E2,2.1007656E1,3.1511484E2,1.8006563E1,3.0010939E0,2.0836165E2,1.067532E2,1.6291653E1,1.7149107E0,1.2861831E0,1.7149107E0,1.02894646E2,1.0546701E2,9.817864E1,8.5745535E0,7.2883706E0,9.003282E0,7.931462E1,2.3580023E1,6.3880424E1,4.1586586E1,8.145826E0,9.0032814E1,4.7160044E0,3.858549E0,3.858549E0,3.4298215E0,6.0021877E0,3.0010939E0,7.759971E1,1.7149107E0,5.57346E0,1.8006563E1,5.187605E1,1.2004375E1,3.515567E1,6.4309154E0,5.1447325E0,3.0010939E0,2.0150202E1,6.9882614E1,1.2861831E0,2.5723662E0],"tree_param":{"num_deleted":"0","num_feature":"5","num_nodes":"43","size_leaf_vector":"1"}},{"base_weights":[-2.3782063E-6,-1.8726178E-1,2.1140805E-1,-2.1662764E-1,6.02046E-1,-1.2952265E-1,2.8666663E-1,-1.6579895E-1,-2.6798297E-2,5.245399E-2,5.00439E-4,5.6557994E-2,-3.4399444E-1,1.0745182E0,2.1592247E-1,-3.5270375E-1,-1.9244054E-2,-6.811374E-2,-2.5860032E-2,-1.8185413E-2,8.74535E-2,3.190078E-1,-1.9336638E-1,6.66492E-4,-2.0477952E-2,1.6681073E-2,-1.0021429E-2,1.2105353E-2,-2.1045426E-2,5.9782244E-2,1.15100285E-2,-2.1390814E-2,1.613923E-2],"categories":[],"categories_nodes":[],"categories_segments":[],"categories_sizes":[],"default_left":[0,0,0,0,0,0,0,0,0,0,0,0,0,0,0,0,0,0,0,0,0,0,0,0,0,0,0,0,0,0,0,0,0],"id":2,"left_children":[1,3,5,7,9,11,13,15,-1,-1,-1,-1,17,19,21,23,25,27,-1,-1,-1,29,31,-1,-1,-1,-1,-1,-1,-1,-1,-1,-1],"loss_changes":[7.5096374E0,2.4620054E0,2.323262E0,1.4972649E0,1.0144871E0,4.931673E0,3.8534122E0,2.3420243E0,0E0,0E0,0E0,0E0,6.874976E-1,6.251487E0,2.952307E0,7.88548E-1,3.2072947E0,8.663815E-1,0E0,0E0,0E0,4.014787E0,1.8814534E0,0E0,0E0,0E0,0E0,0E0,0E0,0E0,0E0,0E0,0E0],"parents":[2147483647,0,0,1,1,2,2,3,3,4,4,5,5,6,6,7,7,12,12,13,13,14,14,15,15,16,16,17,17,21,21,22,22],"right_children":[2,4,6,8,10,12,14,16,-1,-1,-1,-1,18,20,22,24,26,28,-1,-1,-1,30,32,-1,-1,-1,-1,-1,-1,-1,-1,-1,-1],"split_conditions":[1.6000226E0,4.9092317E0,1.7834467E0,3.3194132E0,-4.4569774E0,-1.7939304E0,1.9024837E0,1.9439381E0,-2.6798297E-2,5.245399E-2,5.00439E-4,5.6557994E-2,1.3644233E0,5.1496994E-1,4.062187E0,-3.0734925E0,2.2059126E0,3.856211E0,-2.5860032E-2,-1.8185413E-2,8.74535E-2,2.3976967E0,4.5942426E0,6.66492E-4,-2.0477952E-2,1.6681073E-2,-1.0021429E-2,1.2105353E-2,-2.1045426E-2,5.9782244E-2,1.15100285E-2,-2.1390814E-2,1.613923E-2],"split_indices":[3,0,4,4,3,2,4,4,0,0,0,0,4,2,0,2,4,0,0,0,0,3,0,0,0,0,0,0,0,0,0,0,0],"split_type":[0,0,0,0,0,0,0,0,0,0,0,0,0,0,0,0,0,0,0,0,0,0,0,0,0,0,0,0,0,0,0,0,0],"sum_hessian":[1.8769199E2,9.959167E1,8.810032E1,9.671883E1,2.8728366E0,1.5800601E1,7.229972E1,8.474867E1,1.1970152E1,1.1970152E0,1.6758213E0,1.6758213E0,1.412478E1,4.7880607E0,6.751166E1,3.6628666E1,4.812001E1,5.985076E0,8.139704E0,1.6758213E0,3.1122396E0,5.4105087E1,1.340657E1,5.027464E0,3.1601202E1,1.6040003E1,3.2080006E1,3.3516426E0,2.6334333E0,3.8304486E0,5.027464E1,9.336719E0,4.069852E0],"tree_param":{"num_deleted":"0","num_feature":"5","num_nodes":"33","size_leaf_vector":"1"}},{"base_weights":[-1.1884561E-4,1.72942E-1,-1.4306284E-1,7.0416115E-2,4.721067E-1,-2.3882791E-1,3.2583594E-2,2.3647735E-1,-6.517883E-2,-4.122364E-1,5.9231025E-1,-2.846121E-1,1.2030107E-1,5.4400235E-1,-5.176269E-2,-3.764914E-1,3.5155025E-1,-3.7119973E-1,1.02209456E-1,2.6678655E-2,-4.219034E-2,6.6318804E-1,7.5275995E-2,1.9212909E-1,-3.4202567E-1,-8.600641E-2,4.5141822E-1,3.9919533E-2,-1.987475E-2,4.0116212E-1,-1.2869923E-1,-3.7652742E-2,1.2715696E-2,5.325822E-4,2.675125E-2,-2.757737E-2,2.5875384E-2,-5.715575E-3,1.815128E-2,6.800861E-3,3.4123465E-2,-1.6391743E-2,2.945068E-2,-2.5040979E-2,1.9342234E-2,-1.5175025E-2,-4.561906E-2,2.9916255E-2,-1.5215118E-2,3.4758236E-2,-3.200292E-3,-9.694575E-3,3.76158E-2,-2.3875955E-2,5.0616934E-4],"categories":[],"categories_nodes":[],"categories_segments":[],"categories_sizes":[],"default_left":[0,0,0,0,0,0,0,0,0,0,0,0,0,0,0,0,0,0,0,0,0,0,0,0,0,0,0,0,0,0,0,0,0,0,0,0,0,0,0,0,0,0,0,0,0,0,0,0,0,0,0,0,0,0,0],"id":3,"left_children":[1,3,5,7,9,11,13,15,17,19,21,23,25,27,29,31,33,35,37,-1,-1,39,41,43,45,47,49,-1,-1,51,53,-1,-1,-1,-1,-1,-1,-1,-1,-1,-1,-1,-1,-1,-1,-1,-1,-1,-1,-1,-1,-1,-1,-1,-1],"loss_changes":[9.648169E0,5.3779984E0,3.6005635E0,3.000459E0,5.0122013E0,2.309013E0,3.3170326E0,4.350815E0,3.8163729E0,2.881713E0,1.412158E0,3.4324446E0,1.1554592E0,2.92347E0,2.3641312E0,2.5516071E0,3.176033E0,4.5001984E0,2.7784557E0,0E0,0E0,2.6251793E-1,1.4228144E0,2.0639944E0,2.1432152E0,1.8120463E0,8.5294235E-1,0E0,0E0,2.210101E0,2.788433E0,0E0,0E0,0E0,0E0,0E0,0E0,0E0,0E0,0E0,0E0,0E0,0E0,0E0,0E0,0E0,0E0,0E0,0E0,0E0,0E0,0E0,0E0,0E0,0E0],"parents":[2147483647,0,0,1,1,2,2,3,3,4,4,5,5,6,6,7,7,8,8,9,9,10,10,11,11,12,12,13,13,14,14,15,15,16,16,17,17,18,18,21,21,22,22,23,23,24,24,25,25,26,26,29,29,30,30],"right_children":[2,4,6,8,10,12,14,16,18,20,22,24,26,28,30,32,34,36,38,-1,-1,40,42,44,46,48,50,-1,-1,52,54,-1,-1,-1,-1,-1,-1,-1,-1,-1,-1,-1,-1,-1,-1,-1,-1,-1,-1,-1,-1,-1,-1,-1,-1],"split_conditions":[4.9922398E-1,2.794755E0,1.3004627E0,1.9141811E0,-3.123084E0,1.0301017E1,-1.2004327E-1,1.230104E0,2.1327116E0,-4.7413683E0,2.8404882E0,-2.6167912E0,3.0282385E0,4.450823E0,2.0423253E0,3.085796E0,-1.1009039E0,-3.9707285E-1,3.3434591E0,2.6678655E-2,-4.219034E-2,-2.9300268E0,-1.2700298E0,-3.9883037E0,8.724806E0,1.3705019E0,1.162185E1,3.9919533E-2,-1.987475E-2,7.884882E-1,3.3908265E0,-3.7652742E-2,1.2715696E-2,5.325822E-4,2.675125E-2,-2.757737E-2,2.5875384E-2,-5.715575E-3,1.815128E-2,6.800861E-3,3.4123465E-2,-1.6391743E-2,2.945068E-2,-2.5040979E-2,1.9342234E-2,-1.5175025E-2,-4.561906E-2,2.9916255E-2,-1.5215118E-2,3.4758236E-2,-3.200292E-3,-9.694575E-3,3.76158E-2,-2.3875955E-2,5.0616934E-4],"split_indices":[3,4,1,4,1,3,2,4,4,1,1,1,0,3,3,0,1,3,0,0,0,1,2,1,3,0,3,0,0,3,2,0,0,0,0,0,0,0,0,0,0,0,0,0,0,0,0,0,0,0,0,0,0,0,0],"split_type":[0,0,0,0,0,0,0,0,0,0,0,0,0,0,0,0,0,0,0,0,0,0,0,0,0,0,0,0,0,0,0,0,0,0,0,0,0,0,0,0,0,0,0,0,0,0,0,0,0,0,0,0,0,0,0],"sum_hessian":[3.880138E2,1.7542215E2,2.1259166E2,1.3156818E2,4.3853973E1,1.3734784E2,7.5243805E1,5.880568E1,7.27625E1,4.9568334E0,3.889714E1,1.2200174E2,1.53461075E1,9.88121E0,6.5362595E1,8.935644E0,4.9870033E1,2.5296885E1,4.746561E1,1.4790545E0,3.477779E0,3.3959164E1,4.9379797E0,1.2861142E1,1.09140594E2,9.911102E0,5.435006E0,7.898949E0,1.982261E0,8.878825E0,5.6483772E1,5.4740653E0,3.4615784E0,1.7819403E1,3.2050632E1,2.1344727E1,3.9521587E0,2.6242044E1,2.1223564E1,1.4824268E0,3.2476734E1,2.9696608E0,1.9683192E0,2.476343E0,1.03848E1,1.0367022E2,5.4703717E0,1.9759254E0,7.9351764E0,3.4532323E0,1.9817736E0,3.4612875E0,5.417538E0,1.5385305E1,4.109847E1],"tree_param":{"num_deleted":"0","num_feature":"5","num_nodes":"55","size_leaf_vector":"1"}},{"base_weights":[-9.808295E-6,6.607497E-1,-3.8090833E-2,8.212669E-1,-2.3961002E-1,-1.532672E-1,5.5357996E-2,1.1178608E0,4.2432803E-1,-2.0367103E-2,1.6855662E-3,1.7000896E-1,-2.482449E-1,3.691552E-1,-8.091638E-3,6.502801E-2,1.3102424E-2,-2.4894256E-2,8.224117E-1,1.3471745E-2,7.0677835E-1,-1.6080253E-1,-4.8763302E-1,5.656514E-1,-2.5198188E-1,-2.2767033E-1,9.491128E-2,6.5534315E-3,5.7869304E-2,9.800649E-3,-1.6731521E-2,1.90161E-3,5.24835E-2,-2.3600072E-2,1.1338264E-3,-2.838029E-2,-7.218827E-4,3.3008553E-2,-2.3214505E-3,5.705384E-3,-2.808394E-2,2.1227203E-4,-2.2401018E-2,2.6462479E-2,2.3277323E-3],"categories":[],"categories_nodes":[],"categories_segments":[],"categories_sizes":[],"default_left":[0,0,0,0,0,0,0,0,0,0,0,0,0,0,0,0,0,0,0,0,0,0,0,0,0,0,0,0,0,0,0,0,0,0,0,0,0,0,0,0,0,0,0,0,0],"id":4,"left_children":[1,3,5,7,9,11,13,15,17,-1,-1,19,21,23,25,-1,-1,-1,27,29,31,33,35,37,39,41,43,-1,-1,-1,-1,-1,-1,-1,-1,-1,-1,-1,-1,-1,-1,-1,-1,-1,-1],"loss_changes":[8.506452E0,2.85913E0,3.4488032E0,1.3928709E0,1.7700523E-1,4.446413E0,3.531084E0,9.8284245E-1,3.49125E0,0E0,0E0,2.7772536E0,2.2508602E0,3.7826886E0,3.3774323E0,0E0,0E0,0E0,1.2935133E0,1.7620187E0,1.6727684E0,4.7496147E0,1.0998054E0,1.3592839E0,9.551674E-1,2.438038E0,2.111446E0,0E0,0E0,0E0,0E0,0E0,0E0,0E0,0E0,0E0,0E0,0E0,0E0,0E0,0E0,0E0,0E0,0E0,0E0],"parents":[2147483647,0,0,1,1,2,2,3,3,4,4,5,5,6,6,7,7,8,8,11,11,12,12,13,13,14,14,18,18,19,19,20,20,21,21,22,22,23,23,24,24,25,25,26,26],"right_children":[2,4,6,8,10,12,14,16,18,-1,-1,20,22,24,26,-1,-1,-1,28,30,32,34,36,38,40,42,44,-1,-1,-1,-1,-1,-1,-1,-1,-1,-1,-1,-1,-1,-1,-1,-1,-1,-1],"split_conditions":[1.2467805E0,3.7101564E0,4.7544926E-1,3.085796E0,2.2124301E-1,-2.0241785E0,1.7560515E0,1.4222271E0,4.1215043E0,-2.0367103E-2,1.6855662E-3,3.8937912E0,2.7876842E0,3.7694356E0,3.929202E0,6.502801E-2,1.3102424E-2,-2.4894256E-2,1.1430225E0,2.905748E0,-7.4209723E0,1.8713343E0,2.8404882E0,2.2064226E0,1.4758399E0,-9.820293E-2,-2.5538921E0,6.5534315E-3,5.7869304E-2,9.800649E-3,-1.6731521E-2,1.90161E-3,5.24835E-2,-2.3600072E-2,1.1338264E-3,-2.838029E-2,-7.218827E-4,3.3008553E-2,-2.3214505E-3,5.705384E-3,-2.808394E-2,2.1227203E-4,-2.2401018E-2,2.6462479E-2,2.3277323E-3],"split_indices":[4,3,3,0,1,1,4,2,0,0,0,0,4,0,3,0,0,0,4,0,3,4,1,1,4,1,2,0,0,0,0,0,0,0,0,0,0,0,0,0,0,0,0,0,0],"split_type":[0,0,0,0,0,0,0,0,0,0,0,0,0,0,0,0,0,0,0,0,0,0,0,0,0,0,0,0,0,0,0,0,0,0,0,0,0,0,0,0,0,0,0,0,0],"sum_hessian":[3.360618E2,1.7421583E1,3.186402E2,1.4860145E1,2.5614388E0,1.4244077E2,1.7619943E2,7.465613E0,7.3945317E0,1.2834619E0,1.2779768E0,3.2166267E1,1.10274506E2,2.882485E1,1.4737457E2,5.723975E0,1.7416375E0,2.1539407E0,5.240591E0,2.5697302E1,6.468965E0,8.19954E1,2.8279104E1,2.1965433E1,6.8594174E0,4.667143E1,1.00703156E2,2.1645415E0,3.0760496E0,1.7144047E1,8.553254E0,2.5691786E0,3.8997867E0,2.9829338E1,5.216606E1,2.402006E1,4.259045E0,1.895913E1,3.0063047E0,3.432933E0,3.4264843E0,2.3216778E1,2.3454649E1,9.092229E0,9.161092E1],"tree_param":{"num_deleted":"0","num_feature":"5","num_nodes":"45","size_leaf_vector":"1"}},{"base_weights":[2.6265992E-4,-1.8282804E-1,2.0332767E-1,-2.1216343E-1,5.9095293E-1,-1.2866183E-1,2.7570772E-1,-1.621298E-1,-2.6606807E-2,5.0854713E-2,6.013464E-4,5.381843E-2,-3.414708E-1,1.0181127E0,2.0754182E-1,-3.4713104E-1,-1.945664E-2,-6.8169974E-2,-2.5754392E-2,-1.8036626E-2,8.139715E-2,3.0628538E-1,-1.9114462E-1,6.968609E-4,-2.0212376E-2,1.5784575E-2,-9.805563E-3,1.1690201E-2,-2.090118E-2,5.6616303E-2,1.1034609E-2,-2.1234173E-2,1.5569548E-2],"categories":[],"categories_nodes":[],"categories_segments":[],"categories_sizes":[],"default_left":[0,0,0,0,0,0,0,0,0,0,0,0,0,0,0,0,0,0,0,0,0,0,0,0,0,0,0,0,0,0,0,0,0],"id":5,"left_children":[1,3,5,7,9,11,13,15,-1,-1,-1,-1,17,19,21,23,25,27,-1,-1,-1,29,31,-1,-1,-1,-1,-1,-1,-1,-1,-1,-1],"loss_changes":[7.049223E0,2.3885925E0,2.1956227E0,1.4634132E0,9.514154E-1,4.6687746E0,3.539836E0,2.2406857E0,0E0,0E0,0E0,0E0,6.7731595E-1,5.613454E0,2.7806606E0,7.689867E-1,2.970829E0,8.3570766E-1,0E0,0E0,0E0,3.6956525E0,1.8154082E0,0E0,0E0,0E0,0E0,0E0,0E0,0E0,0E0,0E0,0E0],"parents":[2147483647,0,0,1,1,2,2,3,3,4,4,5,5,6,6,7,7,12,12,13,13,14,14,15,15,16,16,17,17,21,21,22,22],"right_children":[2,4,6,8,10,12,14,16,-1,-1,-1,-1,18,20,22,24,26,28,-1,-1,-1,30,32,-1,-1,-1,-1,-1,-1,-1,-1,-1,-1],"split_conditions":[1.6000226E0,4.9092317E0,1.7834467E0,3.3194132E0,-4.4569774E0,-1.7939304E0,1.9024837E0,1.9439381E0,-2.6606807E-2,5.0854713E-2,6.013464E-4,5.381843E-2,1.3644233E0,5.1496994E-1,4.062187E0,-3.0734925E0,2.2059126E0,3.856211E0,-2.5754392E-2,-1.8036626E-2,8.139715E-2,2.3976967E0,4.5942426E0,6.968609E-4,-2.0212376E-2,1.5784575E-2,-9.805563E-3,1.1690201E-2,-2.090118E-2,5.6616303E-2,1.1034609E-2,-2.1234173E-2,1.5569548E-2],"split_indices":[3,0,4,4,3,2,4,4,0,0,0,0,4,2,0,2,4,0,0,0,0,3,0,0,0,0,0,0,0,0,0,0,0],"split_type":[0,0,0,0,0,0,0,0,0,0,0,0,0,0,0,0,0,0,0,0,0,0,0,0,0,0,0,0,0,0,0,0,0],"sum_hessian":[1.876008E2,9.870473E1,8.8896065E1,9.5798645E1,2.9060845E0,1.577275E1,7.312332E1,8.4147354E1,1.1651289E1,1.2379664E0,1.6681181E0,1.7583258E0,1.4014424E1,4.977442E0,6.8145874E1,3.601475E1,4.8132603E1,5.9852824E0,8.029142E0,1.6515983E0,3.3258436E0,5.480417E1,1.3341708E1,5.022219E0,3.0992533E1,1.6341862E1,3.1790743E1,3.3905015E0,2.594781E0,3.9973643E0,5.0806805E1,9.214469E0,4.1272388E0],"tree_param":{"num_deleted":"0","num_feature":"5","num_nodes":"33","size_leaf_vector":"1"}},{"base_weights":[-2.3446421E-4,1.6604106E-1,-1.3713986E-1,1.15133904E-1,7.3823684E-1,-2.3064072E-1,3.1200876E-2,4.4441406E-2,4.1383183E-1,3.9914224E-2,6.6319923E-3,-2.7571866E-1,1.2055759E-1,4.879215E-1,-5.4499336E-2,-4.6479747E-1,7.8474805E-2,-2.4777558E-2,5.100631E-1,1.9003569E-1,-3.3220547E-1,-8.082386E-2,4.441963E-1,2.931051E-3,3.8111456E-2,-1.4934257E-1,2.423027E-1,-4.287338E-2,1.7434524E-2,1.4105265E-2,-9.93578E-4,4.0330257E-2,1.6181381E-2,1.915696E-2,-2.4790395E-2,-1.4707508E-2,-4.4516083E-2,2.9560251E-2,-1.47423735E-2,3.423591E-2,-3.13801E-3,-1.6378542E-2,2.6564235E-2,2.6400993E-2,-1.0913405E-2,2.9734094E-2,-1.0264977E-2],"categories":[],"categories_nodes":[],"categories_segments":[],"categories_sizes":[],"default_left":[0,0,0,0,0,0,0,0,0,0,0,0,0,0,0,0,0,0,0,0,0,0,0,0,0,0,0,0,0,0,0,0,0,0,0,0,0,0,0,0,0,0,0,0,0,0,0],"id":6,"left_children":[1,3,5,7,9,11,13,15,17,-1,-1,19,21,23,25,27,29,-1,31,33,35,37,39,41,-1,43,45,-1,-1,-1,-1,-1,-1,-1,-1,-1,-1,-1,-1,-1,-1,-1,-1,-1,-1,-1,-1],"loss_changes":[8.87175E0,5.041305E0,3.3714585E0,3.4191136E0,4.1024923E-1,2.2105904E0,3.0484762E0,2.3373425E0,2.9686275E0,0E0,0E0,3.2779245E0,1.1009141E0,1.6339209E0,1.8914306E0,3.0017653E0,2.5148644E0,0E0,1.3177876E0,2.024622E0,2.0604334E0,1.744805E0,8.260083E-1,1.125179E0,0E0,2.4759974E0,2.6995838E0,0E0,0E0,0E0,0E0,0E0,0E0,0E0,0E0,0E0,0E0,0E0,0E0,0E0,0E0,0E0,0E0,0E0,0E0,0E0,0E0],"parents":[2147483647,0,0,1,1,2,2,3,3,4,4,5,5,6,6,7,7,8,8,11,11,12,12,13,13,14,14,15,15,16,16,18,18,19,19,20,20,21,21,22,22,23,23,25,25,26,26],"right_children":[2,4,6,8,10,12,14,16,18,-1,-1,20,22,24,26,28,30,-1,32,34,36,38,40,42,-1,44,46,-1,-1,-1,-1,-1,-1,-1,-1,-1,-1,-1,-1,-1,-1,-1,-1,-1,-1,-1,-1],"split_conditions":[4.9922398E-1,4.0819936E0,1.2438152E0,1.448575E0,2.5600507E0,1.0301017E1,2.0423253E0,1.230104E0,-2.1233494E0,3.9914224E-2,6.6319923E-3,-2.6167912E0,3.0282385E0,7.884882E-1,3.946141E0,3.085796E0,1.93493E0,-2.4777558E-2,2.6994033E0,4.344306E0,8.724806E0,1.3705019E0,1.162185E1,4.897492E0,3.8111456E-2,1.1999161E0,5.821473E0,-4.287338E-2,1.7434524E-2,1.4105265E-2,-9.93578E-4,4.0330257E-2,1.6181381E-2,1.915696E-2,-2.4790395E-2,-1.4707508E-2,-4.4516083E-2,2.9560251E-2,-1.47423735E-2,3.423591E-2,-3.13801E-3,-1.6378542E-2,2.6564235E-2,2.6400993E-2,-1.0913405E-2,2.9734094E-2,-1.0264977E-2],"split_indices":[3,4,1,2,1,3,3,4,1,0,0,1,0,3,0,0,4,0,0,4,3,0,3,2,0,0,3,0,0,0,0,0,0,0,0,0,0,0,0,0,0,0,0,0,0,0,0],"split_type":[0,0,0,0,0,0,0,0,0,0,0,0,0,0,0,0,0,0,0,0,0,0,0,0,0,0,0,0,0,0,0,0,0,0,0,0,0,0,0,0,0,0,0,0,0,0,0],"sum_hessian":[3.8772662E2,1.7498703E2,2.1273958E2,1.6179376E2,1.3193265E1,1.3653459E2,7.6204994E1,1.3175923E2,3.0034525E1,1.1713629E1,1.4796361E0,1.2119373E2,1.5340856E1,1.1298538E1,6.4906456E1,7.4611773E0,1.2429806E2,2.4770339E0,2.7557491E1,1.2852876E1,1.0834086E2,9.919065E0,5.4217896E0,4.4468875E0,6.8516507E0,4.956482E1,1.5341634E1,4.995695E0,2.465482E0,3.9872272E1,8.442579E1,9.35349E0,1.8204002E1,1.037351E1,2.4793658E0,1.0285471E2,5.486141E0,1.9702365E0,7.948829E0,3.4393635E0,1.9824262E0,2.9694307E0,1.4774568E0,3.9625273E0,4.560229E1,8.400033E0,6.9416013E0],"tree_param":{"num_deleted":"0","num_feature":"5","num_nodes":"47","size_leaf_vector":"1"}},{"base_weights":[-2.3841621E-5,6.298553E-1,-3.689311E-2,7.832618E-1,-2.4058178E-1,-1.473157E-1,5.2002855E-2,1.0572914E0,4.098878E-1,-2.027019E-2,1.446498E-3,1.6410123E-1,-2.3992299E-1,3.5239297E-1,-9.265991E-3,6.1355677E-2,1.2497718E-2,-2.4660116E-2,7.9310274E-1,1.1395143E-2,6.8292683E-1,-1.5517919E-1,-4.7474408E-1,5.4097754E-1,-2.511498E-1,-2.2280593E-1,9.0120524E-2,6.2286532E-3,5.5721875E-2,9.397764E-3,-1.6445257E-2,1.8732784E-3,5.040884E-2,-2.3019811E-2,1.1072997E-3,-2.6474347E-2,6.958294E-3,3.149288E-2,-2.2250707E-3,5.2869436E-3,-2.781026E-2,1.4504303E-4,-2.1981155E-2,2.5469754E-2,2.1547235E-3],"categories":[],"categories_nodes":[],"categories_segments":[],"categories_sizes":[],"default_left":[0,0,0,0,0,0,0,0,0,0,0,0,0,0,0,0,0,0,0,0,0,0,0,0,0,0,0,0,0,0,0,0,0,0,0,0,0,0,0,0,0,0,0,0,0],"id":7,"left_children":[1,3,5,7,9,11,13,15,17,-1,-1,19,21,23,25,-1,-1,-1,27,29,31,33,35,37,39,41,43,-1,-1,-1,-1,-1,-1,-1,-1,-1,-1,-1,-1,-1,-1,-1,-1,-1,-1],"loss_changes":[7.846915E0,2.683384E0,3.1410303E0,1.2159405E0,1.7007229E-1,4.1526537E0,3.2715397E0,8.8108826E-1,3.3176792E0,0E0,0E0,2.6293669E0,2.1220775E0,3.5628932E0,3.1710598E0,0E0,0E0,0E0,1.21893E0,1.6680583E0,1.547703E0,4.4788847E0,1.0407405E0,1.2383299E0,9.135809E-1,2.3229802E0,1.989707E0,0E0,0E0,0E0,0E0,0E0,0E0,0E0,0E0,0E0,0E0,0E0,0E0,0E0,0E0,0E0,0E0,0E0,0E0],"parents":[2147483647,0,0,1,1,2,2,3,3,4,4,5,5,6,6,7,7,8,8,11,11,12,12,13,13,14,14,18,18,19,19,20,20,21,21,22,22,23,23,24,24,25,25,26,26],"right_children":[2,4,6,8,10,12,14,16,18,-1,-1,20,22,24,26,-1,-1,-1,28,30,32,34,36,38,40,42,44,-1,-1,-1,-1,-1,-1,-1,-1,-1,-1,-1,-1,-1,-1,-1,-1,-1,-1],"split_conditions":[1.2467805E0,3.7101564E0,4.7544926E-1,3.085796E0,2.017435E-3,-2.0241785E0,1.7560515E0,1.4222271E0,4.1215043E0,-2.027019E-2,1.446498E-3,3.8937912E0,2.7876842E0,3.7694356E0,3.929202E0,6.1355677E-2,1.2497718E-2,-2.4660116E-2,-3.110763E-1,2.905748E0,-7.4209723E0,1.8713343E0,3.3492117E0,2.2064226E0,1.4758399E0,-9.820293E-2,-2.5538921E0,6.2286532E-3,5.5721875E-2,9.397764E-3,-1.6445257E-2,1.8732784E-3,5.040884E-2,-2.3019811E-2,1.1072997E-3,-2.6474347E-2,6.958294E-3,3.149288E-2,-2.2250707E-3,5.2869436E-3,-2.781026E-2,1.4504303E-4,-2.1981155E-2,2.5469754E-2,2.1547235E-3],"split_indices":[4,3,3,0,2,1,4,2,0,0,0,0,4,0,3,0,0,0,1,0,3,4,1,1,4,1,2,0,0,0,0,0,0,0,0,0,0,0,0,0,0,0,0,0,0],"split_type":[0,0,0,0,0,0,0,0,0,0,0,0,0,0,0,0,0,0,0,0,0,0,0,0,0,0,0,0,0,0,0,0,0,0,0,0,0,0,0,0,0,0,0,0,0],"sum_hessian":[3.3589084E2,1.768443E1,3.1820642E2,1.5119846E1,2.5645823E0,1.4162679E2,1.7657964E2,7.663597E0,7.456249E0,1.2784939E0,1.2860885E0,3.2285633E1,1.09341156E2,2.9109486E1,1.4747014E2,5.9021387E0,1.7614583E0,2.1358535E0,5.320396E0,2.5733461E1,6.552173E0,8.156594E1,2.7775217E1,2.225827E1,6.8512144E0,4.644262E1,1.0102753E2,2.1776068E0,3.1427891E0,1.723763E1,8.495831E0,2.5690541E0,3.9831192E0,2.9387325E1,5.2178616E1,2.5627508E1,2.1477094E0,1.9258837E1,2.9994338E0,3.4584746E0,3.39274E0,2.323823E1,2.320439E1,9.1969795E0,9.183054E1],"tree_param":{"num_deleted":"0","num_feature":"5","num_nodes":"45","size_leaf_vector":"1"}},{"base_weights":[5.261913E-4,-1.7830575E-1,1.953595E-1,-2.0761801E-1,5.807577E-1,-1.2682869E-1,2.645785E-1,-1.3473733E-1,-4.2628205E-1,4.9222734E-2,7.654486E-4,5.154845E-2,-3.3847114E-1,-2.1808837E-1,3.5632852E-1,-1.929115E-1,3.595928E-1,1.3688772E-3,-4.6091166E-1,-6.877895E-2,-2.562329E-2,-2.5452683E-2,2.3676524E-1,6.512627E-1,1.07837886E-1,-6.261196E-3,-2.6130069E-2,9.6812035E-4,4.498451E-2,-2.4801057E-2,-8.194403E-3,1.1269077E-2,-2.0773992E-2,4.843345E-2,-2.108141E-2,4.3564364E-2,2.5944454E-3,-4.166665E-3,2.6001656E-2],"categories":[],"categories_nodes":[],"categories_segments":[],"categories_sizes":[],"default_left":[0,0,0,0,0,0,0,0,0,0,0,0,0,0,0,0,0,0,0,0,0,0,0,0,0,0,0,0,0,0,0,0,0,0,0,0,0,0,0],"id":8,"left_children":[1,3,5,7,9,11,13,15,17,-1,-1,-1,19,21,23,25,27,-1,29,31,-1,-1,33,35,37,-1,-1,-1,-1,-1,-1,-1,-1,-1,-1,-1,-1,-1,-1],"loss_changes":[6.601776E0,2.318776E0,2.055847E0,1.4702168E0,8.835467E-1,4.4441223E0,3.3976073E0,2.178959E0,3.8181925E-1,0E0,0E0,0E0,6.631055E-1,1.7873816E0,4.574236E0,1.4137754E0,1.4660931E0,0E0,1.4698744E-1,8.0664504E-1,0E0,0E0,3.1050532E0,3.7501755E0,2.8480384E0,0E0,0E0,0E0,0E0,0E0,0E0,0E0,0E0,0E0,0E0,0E0,0E0,0E0,0E0],"parents":[2147483647,0,0,1,1,2,2,3,3,4,4,5,5,6,6,7,7,8,8,12,12,13,13,14,14,15,15,16,16,18,18,19,19,22,22,23,23,24,24],"right_children":[2,4,6,8,10,12,14,16,18,-1,-1,-1,20,22,24,26,28,-1,30,32,-1,-1,34,36,38,-1,-1,-1,-1,-1,-1,-1,-1,-1,-1,-1,-1,-1,-1],"split_conditions":[1.6000226E0,4.9092317E0,1.7834467E0,1.0328476E0,-4.4569774E0,-1.7939304E0,-7.795384E-1,5.9124373E-2,-4.69073E0,4.9222734E-2,7.654486E-4,5.154845E-2,1.3644233E0,2.8453271E0,6.2834606E0,3.3194132E0,-1.1524261E-1,1.3688772E-3,2.8404882E0,3.856211E0,-2.562329E-2,-2.5452683E-2,4.849686E0,3.9307961E0,4.1443934E0,-6.261196E-3,-2.6130069E-2,9.6812035E-4,4.498451E-2,-2.4801057E-2,-8.194403E-3,1.1269077E-2,-2.0773992E-2,4.843345E-2,-2.108141E-2,4.3564364E-2,2.5944454E-3,-4.166665E-3,2.6001656E-2],"split_indices":[3,0,4,2,3,2,2,2,3,0,0,0,4,4,3,4,3,0,1,0,0,0,3,0,4,0,0,0,0,0,0,0,0,0,0,0,0,0,0],"split_type":[0,0,0,0,0,0,0,0,0,0,0,0,0,0,0,0,0,0,0,0,0,0,0,0,0,0,0,0,0,0,0,0,0,0,0,0,0,0,0],"sum_hessian":[1.874755E2,9.779609E1,8.967941E1,9.485944E1,2.9366448E0,1.5712304E1,7.396711E1,7.235854E1,2.2500902E1,1.2810417E0,1.6556032E0,1.8299917E0,1.3882312E1,1.159462E1,6.2372486E1,6.528533E1,7.0732102E0,1.6106226E0,2.089028E1,5.991211E0,7.8911014E0,6.9985547E0,4.5960646E0,2.777975E1,3.4592735E1,5.5309696E1,9.975635E0,4.975058E0,2.0981522E0,1.808284E1,2.8074403E0,3.430504E0,2.5607066E0,1.9533546E0,2.6427102E0,1.9988497E1,7.791255E0,2.4177387E1,1.041535E1],"tree_param":{"num_deleted":"0","num_feature":"5","num_nodes":"39","size_leaf_vector":"1"}},{"base_weights":[-2.4123595E-4,1.5929477E-1,-1.312059E-1,6.255042E-2,4.437283E-1,-2.2138037E-1,3.1385276E-2,-8.088526E-3,3.508732E-1,-4.0089187E-1,5.600674E-1,-2.6545468E-1,1.22228384E-1,4.7552106E-1,-5.155597E-2,4.8944704E-2,-4.481757E-1,-3.246917E-2,4.3810782E-1,2.5868056E-2,-4.0792134E-2,6.289072E-1,6.3966036E-2,1.8789104E-1,-3.2034495E-1,-7.495955E-2,4.3924722E-1,-1.2301364E-3,3.734864E-2,-1.4347088E-1,2.3669705E-1,-5.250761E-3,1.6612712E-2,-3.0289993E-2,1.2800022E-2,3.894589E-2,1.1576178E-2,6.561669E-3,3.2361295E-2,-1.6407803E-2,2.8504316E-2,-2.4468506E-2,1.8949293E-2,-1.4148994E-2,-4.3462E-2,2.9213369E-2,-1.42312525E-2,3.378439E-2,-2.9259054E-3,-1.6197056E-2,2.5932131E-2,-2.550065E-3,-3.3581313E-2,2.9062493E-2,-9.949051E-3],"categories":[],"categories_nodes":[],"categories_segments":[],"categories_sizes":[],"default_left":[0,0,0,0,0,0,0,0,0,0,0,0,0,0,0,0,0,0,0,0,0,0,0,0,0,0,0,0,0,0,0,0,0,0,0,0,0,0,0,0,0,0,0,0,0,0,0,0,0,0,0,0,0,0,0],"id":9,"left_children":[1,3,5,7,9,11,13,15,17,19,21,23,25,27,29,31,33,-1,35,-1,-1,37,39,41,43,45,47,49,-1,51,53,-1,-1,-1,-1,-1,-1,-1,-1,-1,-1,-1,-1,-1,-1,-1,-1,-1,-1,-1,-1,-1,-1,-1,-1],"loss_changes":[8.1354885E0,4.8026752E0,3.1421163E0,2.6943622E0,4.5862885E0,2.1174212E0,2.8669462E0,2.710705E0,2.555659E0,2.691802E0,1.3064394E0,3.1044664E0,1.0541489E0,1.5849693E0,1.780544E0,4.210714E0,1.5301483E0,0E0,1.5472579E0,0E0,0E0,2.2971725E-1,1.361599E0,1.977032E0,1.9996996E0,1.6764463E0,7.939973E-1,1.0805234E0,0E0,2.4372718E0,2.5648632E0,0E0,0E0,0E0,0E0,0E0,0E0,0E0,0E0,0E0,0E0,0E0,0E0,0E0,0E0,0E0,0E0,0E0,0E0,0E0,0E0,0E0,0E0,0E0,0E0],"parents":[2147483647,0,0,1,1,2,2,3,3,4,4,5,5,6,6,7,7,8,8,9,9,10,10,11,11,12,12,13,13,14,14,15,15,16,16,18,18,21,21,22,22,23,23,24,24,25,25,26,26,27,27,29,29,30,30],"right_children":[2,4,6,8,10,12,14,16,18,20,22,24,26,28,30,32,34,-1,36,-1,-1,38,40,42,44,46,48,50,-1,52,54,-1,-1,-1,-1,-1,-1,-1,-1,-1,-1,-1,-1,-1,-1,-1,-1,-1,-1,-1,-1,-1,-1,-1,-1],"split_conditions":[4.9922398E-1,2.794755E0,1.2438152E0,1.448575E0,-3.123084E0,1.0301017E1,2.0423253E0,4.6551538E0,-2.1233494E0,-4.7413683E0,2.8404882E0,-2.6167912E0,3.0282385E0,7.884882E-1,3.946141E0,3.3886213E0,1.2638035E0,-3.246917E-2,2.6994033E0,2.5868056E-2,-4.0792134E-2,-2.9300268E0,-1.2700298E0,-3.9883037E0,8.724806E0,1.3705019E0,1.162185E1,4.897492E0,3.734864E-2,3.6380432E0,5.821473E0,-5.250761E-3,1.6612712E-2,-3.0289993E-2,1.2800022E-2,3.894589E-2,1.1576178E-2,6.561669E-3,3.2361295E-2,-1.6407803E-2,2.8504316E-2,-2.4468506E-2,1.8949293E-2,-1.4148994E-2,-4.3462E-2,2.9213369E-2,-1.42312525E-2,3.378439E-2,-2.9259054E-3,-1.6197056E-2,2.5932131E-2,-2.550065E-3,-3.3581313E-2,2.9062493E-2,-9.949051E-3],"split_indices":[3,4,1,2,1,3,3,0,1,1,1,1,0,3,0,0,1,0,0,0,0,1,2,1,3,0,3,2,0,0,3,0,0,0,0,0,0,0,0,0,0,0,0,0,0,0,0,0,0,0,0,0,0,0,0],"split_type":[0,0,0,0,0,0,0,0,0,0,0,0,0,0,0,0,0,0,0,0,0,0,0,0,0,0,0,0,0,0,0,0,0,0,0,0,0,0,0,0,0,0,0,0,0,0,0,0,0,0,0,0,0,0,0],"sum_hessian":[3.8737708E2,1.7454135E2,2.1283574E2,1.311524E2,4.3388947E1,1.3667374E2,7.616201E1,1.06124016E2,2.5028387E1,4.9567957E0,3.843215E1,1.2133737E2,1.5336359E1,1.12400875E1,6.492192E1,9.473553E1,1.1388495E1,1.490764E0,2.3537622E1,1.4659545E0,3.4908412E0,3.3514E1,4.9181504E0,1.2842934E1,1.0849444E2,9.925917E0,5.4104414E0,4.4391203E0,6.800967E0,4.9606293E1,1.5315628E1,6.1787468E1,3.2948055E1,9.41968E0,1.9688151E0,7.83744E0,1.5700183E1,1.479645E0,3.2034355E1,2.9692876E0,1.9488629E0,2.482787E0,1.03601465E1,1.02998535E2,5.495902E0,1.9640181E0,7.961899E0,3.4257524E0,1.9846891E0,2.9714665E0,1.4676539E0,4.3148422E1,6.457872E0,8.365616E0,6.950012E0],"tree_param":{"num_deleted":"0","num_feature":"5","num_nodes":"55","size_leaf_vector":"1"}},{"base_weights":[-8.489738E-5,6.0431665E-1,-3.5888806E-2,7.5096166E-1,-2.3849933E-1,-1.4166869E-1,4.8638683E-2,1.0066292E0,3.9743438E-1,-2.020963E-2,1.5579516E-3,1.6113715E-1,-2.3256283E-1,3.3728492E-1,-1.06647005E-2,5.812472E-2,1.229158E-2,-2.4400523E-2,7.669304E-1,1.1916762E-2,6.631779E-1,-1.4925301E-1,-4.6531707E-1,5.1822823E-1,-2.492277E-1,-2.184162E-1,8.530817E-2,5.8905943E-3,5.3875435E-2,9.175607E-3,-1.6111175E-2,1.7896866E-3,4.879775E-2,-2.2487098E-2,1.1510394E-3,-2.72374E-2,-5.213839E-4,3.010716E-2,-2.1457504E-3,4.945697E-3,-2.7507788E-2,7.6052434E-5,-2.159581E-2,-2.2428537E-2,5.91514E-3],"categories":[],"categories_nodes":[],"categories_segments":[],"categories_sizes":[],"default_left":[0,0,0,0,0,0,0,0,0,0,0,0,0,0,0,0,0,0,0,0,0,0,0,0,0,0,0,0,0,0,0,0,0,0,0,0,0,0,0,0,0,0,0,0,0],"id":10,"left_children":[1,3,5,7,9,11,13,15,17,-1,-1,19,21,23,25,-1,-1,-1,27,29,31,33,35,37,39,41,43,-1,-1,-1,-1,-1,-1,-1,-1,-1,-1,-1,-1,-1,-1,-1,-1,-1,-1],"loss_changes":[7.3068624E0,2.5130248E0,2.8571157E0,1.0755644E0,1.7155209E-1,3.9414198E0,3.049329E0,7.6033974E-1,3.1565459E0,0E0,0E0,2.4895968E0,2.053905E0,3.3507307E0,2.9809487E0,0E0,0E0,0E0,1.1611109E0,1.5910394E0,1.4604008E0,4.261013E0,1.0201635E0,1.1335411E0,8.749796E-1,2.2183158E0,1.8558834E0,0E0,0E0,0E0,0E0,0E0,0E0,0E0,0E0,0E0,0E0,0E0,0E0,0E0,0E0,0E0,0E0,0E0,0E0],"parents":[2147483647,0,0,1,1,2,2,3,3,4,4,5,5,6,6,7,7,8,8,11,11,12,12,13,13,14,14,18,18,19,19,20,20,21,21,22,22,23,23,24,24,25,25,26,26],"right_children":[2,4,6,8,10,12,14,16,18,-1,-1,20,22,24,26,-1,-1,-1,28,30,32,34,36,38,40,42,44,-1,-1,-1,-1,-1,-1,-1,-1,-1,-1,-1,-1,-1,-1,-1,-1,-1,-1],"split_conditions":[1.2467805E0,3.7101564E0,4.7544926E-1,3.085796E0,2.2124301E-1,-2.0241785E0,1.7560515E0,1.4222271E0,4.1215043E0,-2.020963E-2,1.5579516E-3,3.8937912E0,2.7876842E0,3.7694356E0,3.929202E0,5.812472E-2,1.229158E-2,-2.4400523E-2,1.1430225E0,2.905748E0,-7.4209723E0,1.8713343E0,2.8404882E0,2.2064226E0,1.4758399E0,-9.820293E-2,1.8895276E0,5.8905943E-3,5.3875435E-2,9.175607E-3,-1.6111175E-2,1.7896866E-3,4.879775E-2,-2.2487098E-2,1.1510394E-3,-2.72374E-2,-5.213839E-4,3.010716E-2,-2.1457504E-3,4.945697E-3,-2.7507788E-2,7.6052434E-5,-2.159581E-2,-2.2428537E-2,5.91514E-3],"split_indices":[4,3,3,0,1,1,4,2,0,0,0,0,4,0,3,0,0,0,4,0,3,4,1,1,4,1,4,0,0,0,0,0,0,0,0,0,0,0,0,0,0,0,0,0,0],"split_type":[0,0,0,0,0,0,0,0,0,0,0,0,0,0,0,0,0,0,0,0,0,0,0,0,0,0,0,0,0,0,0,0,0,0,0,0,0,0,0,0,0,0,0,0,0],"sum_hessian":[3.356541E2,1.788366E1,3.1777045E2,1.5326009E1,2.55765E0,1.408416E2,1.7692885E2,7.821898E0,7.5041103E0,1.2751935E0,1.2824565E0,3.2337906E1,1.085037E2,2.9356255E1,1.475726E2,6.053682E0,1.7682164E0,2.1150196E0,5.389091E0,2.5717646E1,6.620259E0,8.1112366E1,2.7391335E1,2.2523897E1,6.832358E0,4.622784E1,1.0134476E2,2.1904054E0,3.1986856E0,1.7289524E1,8.428121E0,2.5732138E0,4.047045E0,2.8970278E1,5.214209E1,2.3151222E1,4.2401123E0,1.9530228E1,2.9936702E0,3.4789214E0,3.3534362E0,2.3259705E1,2.2968138E1,5.165624E0,9.617913E1],"tree_param":{"num_deleted":"0","num_feature":"5","num_nodes":"45","size_leaf_vector":"1"}},{"base_weights":[6.4905034E-4,-1.7377403E-1,1.8732533E-1,-2.0300557E-1,5.6793916E-1,-1.2419017E-1,2.531321E-1,-1.3118589E-1,-4.212841E-1,4.7715086E-2,7.907885E-4,4.9429283E-2,-3.3488494E-1,9.4372463E-1,1.8849847E-1,-1.8884271E-1,3.5016227E-1,1.4299032E-3,-4.5631173E-1,-6.7375354E-2,-2.5490442E-2,-1.7972387E-2,7.430561E-2,2.8052166E-1,-1.9171423E-1,-6.111323E-3,-2.5955725E-2,3.950791E-3,5.238371E-2,-2.4597347E-2,-7.93638E-3,1.1010115E-2,-2.0617321E-2,5.160107E-2,1.0014087E-2,-2.1134395E-2,1.4677154E-2],"categories":[],"categories_nodes":[],"categories_segments":[],"categories_sizes":[],"default_left":[0,0,0,0,0,0,0,0,0,0,0,0,0,0,0,0,0,0,0,0,0,0,0,0,0,0,0,0,0,0,0,0,0,0,0,0,0],"id":11,"left_children":[1,3,5,7,9,11,13,15,17,-1,-1,-1,19,21,23,25,27,-1,29,31,-1,-1,-1,33,35,-1,-1,-1,-1,-1,-1,-1,-1,-1,-1,-1,-1],"loss_changes":[6.1664515E0,2.238055E0,1.9066985E0,1.4329426E0,8.32983E-1,4.2288637E0,3.2078028E0,2.0888014E0,3.7627697E-1,0E0,0E0,0E0,6.5469885E-1,4.9461536E0,2.5243125E0,1.3828158E0,1.4579283E0,0E0,1.4931583E-1,7.826762E-1,0E0,0E0,0E0,3.2458858E0,1.7328523E0,0E0,0E0,0E0,0E0,0E0,0E0,0E0,0E0,0E0,0E0,0E0,0E0],"parents":[2147483647,0,0,1,1,2,2,3,3,4,4,5,5,6,6,7,7,8,8,12,12,13,13,14,14,15,15,16,16,18,18,19,19,23,23,24,24],"right_children":[2,4,6,8,10,12,14,16,18,-1,-1,-1,20,22,24,26,28,-1,30,32,-1,-1,-1,34,36,-1,-1,-1,-1,-1,-1,-1,-1,-1,-1,-1,-1],"split_conditions":[1.6000226E0,4.9092317E0,1.7834467E0,1.0328476E0,-4.4569774E0,-1.7939304E0,1.9024837E0,5.9124373E-2,-4.69073E0,4.7715086E-2,7.907885E-4,4.9429283E-2,1.3644233E0,5.1496994E-1,4.062187E0,3.3194132E0,1.4247892E0,1.4299032E-3,2.8404882E0,3.856211E0,-2.5490442E-2,-1.7972387E-2,7.430561E-2,2.3976967E0,4.5942426E0,-6.111323E-3,-2.5955725E-2,3.950791E-3,5.238371E-2,-2.4597347E-2,-7.93638E-3,1.1010115E-2,-2.0617321E-2,5.160107E-2,1.0014087E-2,-2.1134395E-2,1.4677154E-2],"split_indices":[3,0,4,2,3,2,4,2,3,0,0,0,4,2,0,4,1,0,1,0,0,0,0,3,0,0,0,0,0,0,0,0,0,0,0,0,0],"split_type":[0,0,0,0,0,0,0,0,0,0,0,0,0,0,0,0,0,0,0,0,0,0,0,0,0,0,0,0,0,0,0,0,0,0,0,0,0],"sum_hessian":[1.8738379E2,9.6906876E1,9.047691E1,9.393127E1,2.975608E0,1.5624869E1,7.485204E1,7.1881325E1,2.2049942E1,1.3220493E0,1.653559E0,1.8996928E0,1.3725177E1,5.2419653E0,6.961008E1,6.473493E1,7.146398E0,1.6060447E0,2.04439E1,5.9741426E0,7.751034E0,1.6396738E0,3.6022913E0,5.625648E1,1.3353601E1,5.5009514E1,9.725415E0,5.947634E0,1.1987638E0,1.7674295E1,2.7696028E0,3.4553466E0,2.518796E0,4.2828703E0,5.197361E1,9.134626E0,4.218975E0],"tree_param":{"num_deleted":"0","num_feature":"5","num_nodes":"37","size_leaf_vector":"1"}},{"base_weights":[-3.3478884E-4,1.5291946E-1,-1.2575042E-1,1.0476342E-1,7.018514E-1,-2.1311998E-1,3.1974617E-2,3.825791E-2,3.8761976E-1,3.8012926E-2,6.17817E-3,-2.5627154E-1,1.23501636E-1,4.6400106E-1,-4.8288863E-2,-4.3232736E-1,6.977099E-2,-2.3900425E-2,4.8046923E-1,1.8507259E-1,-3.0962425E-1,5.036469E-1,-3.7428122E-2,-5.138937E-3,3.664761E-2,3.2852975E-1,-1.1642023E-1,-4.017214E-2,1.6861828E-2,1.3354674E-2,-1.2615764E-3,1.480554E-2,3.8811274E-2,1.6832361E-2,-3.1939562E-2,-1.3646819E-2,-4.2479675E-2,6.3426415E-3,3.1388E-2,-3.0695794E-2,1.28066335E-2,-1.601236E-2,2.5329402E-2,2.7282966E-2,-1.9580059E-2,-2.6528722E-2,6.2734744E-4],"categories":[],"categories_nodes":[],"categories_segments":[],"categories_sizes":[],"default_left":[0,0,0,0,0,0,0,0,0,0,0,0,0,0,0,0,0,0,0,0,0,0,0,0,0,0,0,0,0,0,0,0,0,0,0,0,0,0,0,0,0,0,0,0,0,0,0],"id":12,"left_children":[1,3,5,7,9,11,13,15,17,-1,-1,19,21,23,25,27,29,-1,31,33,35,37,39,41,-1,43,45,-1,-1,-1,-1,-1,-1,-1,-1,-1,-1,-1,-1,-1,-1,-1,-1,-1,-1,-1,-1],"loss_changes":[7.4741845E0,4.5527635E0,2.9538133E0,3.0339692E0,3.7687826E-1,2.0325985E0,2.696025E0,1.9925369E0,2.700561E0,0E0,0E0,2.9400349E0,1.0176697E0,1.5398858E0,1.7308422E0,2.6826005E0,2.3478305E0,0E0,1.3112164E0,1.9420123E0,1.9392414E0,1.5069366E-1,2.2560196E0,1.0376967E0,0E0,1.8330749E0,3.0282886E0,0E0,0E0,0E0,0E0,0E0,0E0,0E0,0E0,0E0,0E0,0E0,0E0,0E0,0E0,0E0,0E0,0E0,0E0,0E0,0E0],"parents":[2147483647,0,0,1,1,2,2,3,3,4,4,5,5,6,6,7,7,8,8,11,11,12,12,13,13,14,14,15,15,16,16,18,18,19,19,20,20,21,21,22,22,23,23,25,25,26,26],"right_children":[2,4,6,8,10,12,14,16,18,-1,-1,20,22,24,26,28,30,-1,32,34,36,38,40,42,-1,44,46,-1,-1,-1,-1,-1,-1,-1,-1,-1,-1,-1,-1,-1,-1,-1,-1,-1,-1,-1,-1],"split_conditions":[4.9922398E-1,4.0819936E0,1.2438152E0,1.448575E0,2.5600507E0,1.0301017E1,2.0423253E0,1.230104E0,-2.1233494E0,3.8012926E-2,6.17817E-3,-2.6167912E0,3.2619812E0,7.884882E-1,4.3773763E-2,3.085796E0,1.93493E0,-2.3900425E-2,2.099074E0,7.31835E0,8.724806E0,-2.2563107E0,4.363016E0,4.897492E0,3.664761E-2,2.949253E0,3.1492007E0,-4.017214E-2,1.6861828E-2,1.3354674E-2,-1.2615764E-3,1.480554E-2,3.8811274E-2,1.6832361E-2,-3.1939562E-2,-1.3646819E-2,-4.2479675E-2,6.3426415E-3,3.1388E-2,-3.0695794E-2,1.28066335E-2,-1.601236E-2,2.5329402E-2,2.7282966E-2,-1.9580059E-2,-2.6528722E-2,6.2734744E-4],"split_indices":[3,4,1,2,1,3,3,4,1,0,0,1,2,3,2,0,4,0,4,3,3,1,4,2,0,1,2,0,0,0,0,0,0,0,0,0,0,0,0,0,0,0,0,0,0,0,0],"split_type":[0,0,0,0,0,0,0,0,0,0,0,0,0,0,0,0,0,0,0,0,0,0,0,0,0,0,0,0,0,0,0,0,0,0,0,0,0,0,0,0,0,0,0,0,0,0,0],"sum_hessian":[3.868652E2,1.7401035E2,2.1285486E2,1.6107097E2,1.2939388E1,1.3675188E2,7.610298E1,1.3132819E2,2.9742777E1,1.1466592E1,1.4727964E0,1.2142509E2,1.5326793E1,1.117444E1,6.492854E1,7.444241E0,1.2388394E2,2.479392E0,2.7263384E1,1.2829347E1,1.0859574E2,3.925186E0,1.1401607E1,4.4292507E0,6.7451897E0,9.35672E0,5.5571827E1,4.9925866E0,2.4516544E0,3.9672264E1,8.421168E1,1.8027325E1,9.23606E0,1.1335263E1,1.494084E0,1.0309639E2,5.499353E0,1.4735925E0,2.4515934E0,3.4787824E0,7.9228244E0,2.9728377E0,1.4564129E0,7.3752546E0,1.9814646E0,1.2456395E1,4.311543E1],"tree_param":{"num_deleted":"0","num_feature":"5","num_nodes":"47","size_leaf_vector":"1"}},{"base_weights":[-1.8431379E-4,5.852769E-1,-3.5166655E-2,7.2706515E-1,-2.3686655E-1,-1.3665192E-1,4.5352045E-2,9.728415E-1,3.853939E-1,1.5463334E-3,-2.0094758E-2,1.5559609E-1,-2.2532544E-1,3.232651E-1,-1.2109726E-2,5.5990756E-2,1.2150321E-2,-2.415538E-2,7.422672E-1,1.1065718E-2,6.3647515E-1,-1.4489038E-1,-4.5316976E-1,4.972258E-1,-2.4734111E-1,-4.8695403E-1,2.7901692E-2,5.660053E-3,5.2047033E-2,8.833287E-3,-1.576111E-2,1.6486977E-3,4.667121E-2,-2.208593E-2,1.1758719E-3,-2.6601223E-2,-5.5394176E-4,3.0542293E-3,3.0318214E-2,4.6208403E-3,-2.7215326E-2,-5.7133413E-3,-3.148997E-2,-3.7470236E-3,9.870292E-3],"categories":[],"categories_nodes":[],"categories_segments":[],"categories_sizes":[],"default_left":[0,0,0,0,0,0,0,0,0,0,0,0,0,0,0,0,0,0,0,0,0,0,0,0,0,0,0,0,0,0,0,0,0,0,0,0,0,0,0,0,0,0,0,0,0],"id":13,"left_children":[1,3,5,7,9,11,13,15,17,-1,-1,19,21,23,25,-1,-1,-1,27,29,31,33,35,37,39,41,43,-1,-1,-1,-1,-1,-1,-1,-1,-1,-1,-1,-1,-1,-1,-1,-1,-1,-1],"loss_changes":[6.9087887E0,2.3893414E0,2.6072178E0,1.0079412E0,1.6940193E-1,3.6907823E0,2.8502588E0,6.848974E-1,3.0073228E0,0E0,0E0,2.316413E0,1.9253039E0,3.1579146E0,2.8380642E0,0E0,0E0,0E0,1.0942516E0,1.4995824E0,1.350555E0,4.097533E0,9.6586466E-1,1.0940914E0,8.38431E-1,5.459721E-1,2.4214036E0,0E0,0E0,0E0,0E0,0E0,0E0,0E0,0E0,0E0,0E0,0E0,0E0,0E0,0E0,0E0,0E0,0E0,0E0],"parents":[2147483647,0,0,1,1,2,2,3,3,4,4,5,5,6,6,7,7,8,8,11,11,12,12,13,13,14,14,18,18,19,19,20,20,21,21,22,22,23,23,24,24,25,25,26,26],"right_children":[2,4,6,8,10,12,14,16,18,-1,-1,20,22,24,26,-1,-1,-1,28,30,32,34,36,38,40,42,44,-1,-1,-1,-1,-1,-1,-1,-1,-1,-1,-1,-1,-1,-1,-1,-1,-1,-1],"split_conditions":[1.2467805E0,3.7101564E0,4.7544926E-1,3.085796E0,1.7799008E0,-2.0241785E0,1.7560515E0,1.4222271E0,4.1215043E0,1.5463334E-3,-2.0094758E-2,3.8937912E0,2.7876842E0,3.7694356E0,1.8895276E0,5.5990756E-2,1.2150321E-2,-2.415538E-2,-3.110763E-1,2.905748E0,-7.4209723E0,1.8713343E0,2.8404882E0,-2.088838E0,1.4758399E0,1.8883035E0,3.5374548E0,5.660053E-3,5.2047033E-2,8.833287E-3,-1.576111E-2,1.6486977E-3,4.667121E-2,-2.208593E-2,1.1758719E-3,-2.6601223E-2,-5.5394176E-4,3.0542293E-3,3.0318214E-2,4.6208403E-3,-2.7215326E-2,-5.7133413E-3,-3.148997E-2,-3.7470236E-3,9.870292E-3],"split_indices":[4,3,3,0,0,1,4,2,0,0,0,0,4,0,4,0,0,0,1,0,3,4,1,2,4,0,0,0,0,0,0,0,0,0,0,0,0,0,0,0,0,0,0,0,0],"split_type":[0,0,0,0,0,0,0,0,0,0,0,0,0,0,0,0,0,0,0,0,0,0,0,0,0,0,0,0,0,0,0,0,0,0,0,0,0,0,0,0,0,0,0,0,0],"sum_hessian":[3.35325E2,1.8019623E1,3.173054E2,1.5467687E1,2.5519366E0,1.4006773E2,1.7723764E2,7.921888E0,7.545799E0,1.2828476E0,1.269089E0,3.2430237E1,1.076375E2,2.9574627E1,1.4766302E2,6.149222E0,1.7726657E0,2.0945916E0,5.4512067E0,2.5722296E1,6.7079415E0,8.0762215E1,2.6875278E1,2.2763363E1,6.811263E0,1.0607368E1,1.3705565E2,2.1988988E0,3.2523081E0,1.7366753E1,8.355543E0,2.5785327E0,4.129409E0,2.8647133E1,5.2115086E1,2.2634575E1,4.240703E0,4.8682942E0,1.789507E1,3.498E0,3.3132634E0,3.4378536E0,7.1695147E0,8.5648544E1,5.1407112E1],"tree_param":{"num_deleted":"0","num_feature":"5","num_nodes":"45","size_leaf_vector":"1"}},{"base_weights":[1.0194316E-3,-1.6923602E-1,1.8020386E-1,-1.9830424E-1,5.5129504E-1,1.2141166E-1,5.244293E-1,-1.2749526E-1,-4.1628668E-1,4.5701046E-2,8.634056E-4,2.3916219E-1,-2.2148429E-1,8.346652E-2,2.891127E-1,-1.8471923E-1,3.4258777E-1,1.4292394E-3,-4.5167387E-1,3.856685E-1,-5.495121E-3,-3.3820444E-1,5.2321684E-1,9.3886834E-1,6.1008246E-3,-5.965131E-3,-2.5773024E-2,3.878193E-3,5.0583392E-2,-2.4395145E-2,-7.6457984E-3,3.2976177E-2,9.071727E-3,-5.084164E-3,4.16677E-2,-2.5830274E-2,-8.209619E-3,6.2722913E-3,3.5271075E-2,8.9574663E-4,8.393042E-2,-1.3457811E-2,5.000772E-2],"categories":[],"categories_nodes":[],"categories_segments":[],"categories_sizes":[],"default_left":[0,0,0,0,0,0,0,0,0,0,0,0,0,0,0,0,0,0,0,0,0,0,0,0,0,0,0,0,0,0,0,0,0,0,0,0,0,0,0,0,0,0,0],"id":14,"left_children":[1,3,5,7,9,11,13,15,17,-1,-1,19,21,-1,23,25,27,-1,29,31,33,35,37,39,41,-1,-1,-1,-1,-1,-1,-1,-1,-1,-1,-1,-1,-1,-1,-1,-1,-1,-1],"loss_changes":[5.771569E0,2.1412387E0,1.8017235E0,1.3976314E0,7.6418877E-1,3.2842307E0,3.0588455E0,2.010414E0,3.687501E-1,0E0,0E0,2.1546383E0,2.000238E0,0E0,2.221789E0,1.3487048E0,1.3765497E0,0E0,1.526618E-1,1.9819074E0,1.9791213E0,4.9698305E-1,1.4595407E-1,2.469356E0,2.8534336E0,0E0,0E0,0E0,0E0,0E0,0E0,0E0,0E0,0E0,0E0,0E0,0E0,0E0,0E0,0E0,0E0,0E0,0E0],"parents":[2147483647,0,0,1,1,2,2,3,3,4,4,5,5,6,6,7,7,8,8,11,11,12,12,14,14,15,15,16,16,18,18,19,19,20,20,21,21,22,22,23,23,24,24],"right_children":[2,4,6,8,10,12,14,16,18,-1,-1,20,22,-1,24,26,28,-1,30,32,34,36,38,40,42,-1,-1,-1,-1,-1,-1,-1,-1,-1,-1,-1,-1,-1,-1,-1,-1,-1,-1],"split_conditions":[1.6000226E0,4.9092317E0,4.1651173E0,1.0328476E0,-4.4569774E0,7.029496E0,4.2701025E0,5.9124373E-2,-4.69073E0,4.5701046E-2,8.634056E-4,8.205395E-1,8.798771E0,8.346652E-2,-1.2934806E0,3.3194132E0,1.4247892E0,1.4292394E-3,2.8404882E0,2.2553072E0,6.864557E0,3.5139446E0,3.3886213E0,3.1249075E0,2.5600507E0,-5.965131E-3,-2.5773024E-2,3.878193E-3,5.0583392E-2,-2.4395145E-2,-7.6457984E-3,3.2976177E-2,9.071727E-3,-5.084164E-3,4.16677E-2,-2.5830274E-2,-8.209619E-3,6.2722913E-3,3.5271075E-2,8.9574663E-4,8.393042E-2,-1.3457811E-2,5.000772E-2],"split_indices":[3,0,4,2,3,3,4,2,3,0,0,1,2,0,1,4,1,0,1,0,3,2,0,2,1,0,0,0,0,0,0,0,0,0,0,0,0,0,0,0,0,0,0],"split_type":[0,0,0,0,0,0,0,0,0,0,0,0,0,0,0,0,0,0,0,0,0,0,0,0,0,0,0,0,0,0,0,0,0,0,0,0,0,0,0,0,0,0,0],"sum_hessian":[1.8718791E2,9.6013954E1,9.117395E1,9.2987366E1,3.0265887E0,7.902888E1,1.2145074E1,7.138401E1,2.1603355E1,1.378625E0,1.6479636E0,5.9052692E1,1.9976183E1,1.0316665E0,1.1113407E1,6.4178505E1,7.205505E0,1.6059773E0,1.9997377E1,3.6574623E1,2.247807E1,1.7741358E1,2.2348258E0,2.6687996E0,8.444608E0,5.4716885E1,9.461624E0,5.9604754E0,1.2450297E0,1.7270016E1,2.7273626E0,1.4671934E1,2.1902689E1,2.0954111E1,1.5239587E0,7.7880664E0,9.953291E0,1.2325449E0,1.0022808E0,1.6450193E0,1.0237803E0,7.184443E0,1.2601647E0],"tree_param":{"num_deleted":"0","num_feature":"5","num_nodes":"43","size_leaf_vector":"1"}},{"base_weights":[-6.107763E-4,1.4684197E-1,-1.2090403E-1,1.0010478E-1,6.844276E-1,-2.0568605E-1,3.231537E-2,5.2384235E-2,4.790885E-1,3.710855E-2,5.975171E-3,-2.474615E-1,1.20659985E-1,4.5634788E-1,-4.6123527E-2,-3.0450556E-1,9.222848E-2,-3.062722E-2,6.1539483E-1,1.8169172E-1,-2.9925466E-1,-7.0102334E-2,4.2826092E-1,-2.7915803E-3,3.604455E-2,5.1999307E-1,-9.061136E-2,3.6638514E-3,-3.4582388E-2,1.9378541E-2,-4.570557E-5,1.8017583E-2,3.7848677E-2,1.8446004E-2,-2.3929728E-2,-1.316525E-2,-4.1484006E-2,2.8756818E-2,-1.3739252E-2,3.302067E-2,-2.8651E-3,-1.553552E-2,2.4935124E-2,6.49257E-3,3.2415457E-2,-1.0089718E-2,1.168183E-2],"categories":[],"categories_nodes":[],"categories_segments":[],"categories_sizes":[],"default_left":[0,0,0,0,0,0,0,0,0,0,0,0,0,0,0,0,0,0,0,0,0,0,0,0,0,0,0,0,0,0,0,0,0,0,0,0,0,0,0,0,0,0,0,0,0,0,0],"id":15,"left_children":[1,3,5,7,9,11,13,15,17,-1,-1,19,21,23,25,27,29,-1,31,33,35,37,39,41,-1,43,45,-1,-1,-1,-1,-1,-1,-1,-1,-1,-1,-1,-1,-1,-1,-1,-1,-1,-1,-1,-1],"loss_changes":[6.887344E0,4.314681E0,2.7844367E0,2.8987808E0,3.6089945E-1,1.9084988E0,2.5833852E0,2.085913E0,3.0490136E0,0E0,0E0,2.776948E0,9.870695E-1,1.4738808E0,1.7073369E0,2.2103138E0,3.602583E0,0E0,3.2168865E-1,1.8841875E0,1.872899E0,1.6010554E0,7.574501E-1,9.928109E-1,0E0,1.6368294E-1,2.281179E0,0E0,0E0,0E0,0E0,0E0,0E0,0E0,0E0,0E0,0E0,0E0,0E0,0E0,0E0,0E0,0E0,0E0,0E0,0E0,0E0],"parents":[2147483647,0,0,1,1,2,2,3,3,4,4,5,5,6,6,7,7,8,8,11,11,12,12,13,13,14,14,15,15,16,16,18,18,19,19,20,20,21,21,22,22,23,23,25,25,26,26],"right_children":[2,4,6,8,10,12,14,16,18,-1,-1,20,22,24,26,28,30,-1,32,34,36,38,40,42,-1,44,46,-1,-1,-1,-1,-1,-1,-1,-1,-1,-1,-1,-1,-1,-1,-1,-1,-1,-1,-1,-1],"split_conditions":[4.9922398E-1,4.0819936E0,1.2438152E0,2.4452498E0,2.5600507E0,1.0301017E1,2.0423253E0,1.4100639E0,-2.6818428E0,3.710855E-2,5.975171E-3,-2.6167912E0,3.0282385E0,7.884882E-1,1.1999161E0,1.2323678E0,2.216795E0,-3.062722E-2,2.0454721E0,4.344306E0,8.724806E0,1.3705019E0,1.162185E1,4.897492E0,3.604455E-2,5.7322855E0,3.946141E0,3.6638514E-3,-3.4582388E-2,1.9378541E-2,-4.570557E-5,1.8017583E-2,3.7848677E-2,1.8446004E-2,-2.3929728E-2,-1.316525E-2,-4.1484006E-2,2.8756818E-2,-1.3739252E-2,3.302067E-2,-2.8651E-3,-1.553552E-2,2.4935124E-2,6.49257E-3,3.2415457E-2,-1.0089718E-2,1.168183E-2],"split_indices":[3,4,1,2,1,3,3,0,1,0,0,1,0,3,0,0,0,0,4,4,3,0,3,2,0,3,0,0,0,0,0,0,0,0,0,0,0,0,0,0,0,0,0,0,0,0,0],"split_type":[0,0,0,0,0,0,0,0,0,0,0,0,0,0,0,0,0,0,0,0,0,0,0,0,0,0,0,0,0,0,0,0,0,0,0,0,0,0,0,0,0,0,0,0,0,0,0],"sum_hessian":[3.8629034E2,1.7345386E2,2.128365E2,1.6067145E2,1.2782411E1,1.367984E2,7.603809E1,1.4371365E2,1.695779E1,1.1312369E1,1.4700407E0,1.2148843E2,1.5309973E1,1.1117917E1,6.492018E1,1.376615E1,1.299475E2,1.4945499E0,1.546324E1,1.2813012E1,1.08675415E2,9.926214E0,5.3837585E0,4.4258633E0,6.6920543E0,3.9512534E0,6.0968925E1,7.3776183E0,6.388532E0,3.0398136E1,9.954936E1,6.7852936E0,8.677946E0,1.0326219E1,2.4867928E0,1.03178856E2,5.496559E0,1.954617E0,7.9715977E0,3.3987048E0,1.9850537E0,2.9778717E0,1.4479914E0,1.4758708E0,2.4753828E0,4.5682335E1,1.5286589E1],"tree_param":{"num_deleted":"0","num_feature":"5","num_nodes":"47","size_leaf_vector":"1"}},{"base_weights":[-3.2455524E-4,5.624909E-1,-3.426502E-2,6.9854397E-1,-2.3448104E-1,-1.3142085E-1,4.226382E-2,9.2743737E-1,3.7551787E-1,-2.0032885E-2,1.6893765E-3,1.5278126E-1,-2.1842591E-1,3.1057096E-1,-1.3508714E-2,5.329109E-2,1.1703819E-2,-2.389518E-2,7.210359E-1,1.1491498E-2,6.1910033E-1,-5.320201E-1,-1.6045925E-1,4.781913E-1,-2.4534096E-1,-2.1394978E-1,7.822884E-2,5.380235E-3,5.0574955E-2,8.623349E-3,-1.5444289E-2,1.5692909E-3,4.53E-2,-3.227607E-2,3.919785E-3,-1.992564E-3,-2.2204759E-2,2.7866095E-2,-2.6518505E-3,4.3272483E-3,-2.693193E-2,-3.0182433E-5,-2.1181876E-2,2.4031086E-2,1.6424047E-3],"categories":[],"categories_nodes":[],"categories_segments":[],"categories_sizes":[],"default_left":[0,0,0,0,0,0,0,0,0,0,0,0,0,0,0,0,0,0,0,0,0,0,0,0,0,0,0,0,0,0,0,0,0,0,0,0,0,0,0,0,0,0,0,0,0],"id":16,"left_children":[1,3,5,7,9,11,13,15,17,-1,-1,19,21,23,25,-1,-1,-1,27,29,31,33,35,37,39,41,43,-1,-1,-1,-1,-1,-1,-1,-1,-1,-1,-1,-1,-1,-1,-1,-1,-1,-1],"loss_changes":[6.436902E0,2.2418928E0,2.3684468E0,8.807316E-1,1.7149985E-1,3.501855E0,2.675692E0,6.1867905E-1,2.8727827E0,0E0,0E0,2.1978106E0,1.8743176E0,2.9840848E0,2.7521508E0,0E0,0E0,0E0,1.0496075E0,1.4304078E0,1.2805238E0,1.185925E0,3.1438255E0,1.0374632E0,8.047366E-1,2.101238E0,1.8611698E0,0E0,0E0,0E0,0E0,0E0,0E0,0E0,0E0,0E0,0E0,0E0,0E0,0E0,0E0,0E0,0E0,0E0,0E0],"parents":[2147483647,0,0,1,1,2,2,3,3,4,4,5,5,6,6,7,7,8,8,11,11,12,12,13,13,14,14,18,18,19,19,20,20,21,21,22,22,23,23,24,24,25,25,26,26],"right_children":[2,4,6,8,10,12,14,16,18,-1,-1,20,22,24,26,-1,-1,-1,28,30,32,34,36,38,40,42,44,-1,-1,-1,-1,-1,-1,-1,-1,-1,-1,-1,-1,-1,-1,-1,-1,-1,-1],"split_conditions":[1.2467805E0,3.7101564E0,4.7544926E-1,3.085796E0,2.2124301E-1,-2.0241785E0,1.7560515E0,1.4222271E0,4.1215043E0,-2.0032885E-2,1.6893765E-3,3.8937912E0,1.6918339E0,3.7694356E0,3.929202E0,5.329109E-2,1.1703819E-2,-2.389518E-2,1.1430225E0,2.905748E0,-7.4209723E0,4.2678957E0,2.7876842E0,2.2064226E0,1.4758399E0,-9.820293E-2,-2.5538921E0,5.380235E-3,5.0574955E-2,8.623349E-3,-1.5444289E-2,1.5692909E-3,4.53E-2,-3.227607E-2,3.919785E-3,-1.992564E-3,-2.2204759E-2,2.7866095E-2,-2.6518505E-3,4.3272483E-3,-2.693193E-2,-3.0182433E-5,-2.1181876E-2,2.4031086E-2,1.6424047E-3],"split_indices":[4,3,3,0,1,1,4,2,0,0,0,0,4,0,3,0,0,0,4,0,3,0,4,1,4,1,2,0,0,0,0,0,0,0,0,0,0,0,0,0,0,0,0,0,0],"split_type":[0,0,0,0,0,0,0,0,0,0,0,0,0,0,0,0,0,0,0,0,0,0,0,0,0,0,0,0,0,0,0,0,0,0,0,0,0,0,0,0,0,0,0,0,0],"sum_hessian":[3.3496243E2,1.8165266E1,3.1679715E2,1.5621913E1,2.5433533E0,1.3927095E2,1.7752621E2,8.048047E0,7.573866E0,1.2657813E0,1.277572E0,3.2465702E1,1.0680524E2,2.9765177E1,1.4776103E2,6.2612205E0,1.7868268E0,2.072266E0,5.5016E0,2.57027E1,6.7630043E0,1.5386688E1,9.141855E1,2.2976912E1,6.7882643E0,4.597538E1,1.0178565E2,2.2083106E0,3.2932892E0,1.7414404E1,8.288295E0,2.5823832E0,4.180621E0,1.2925752E1,2.4609373E0,6.494365E1,2.6474903E1,1.9955294E1,3.0216174E0,3.5153427E0,3.2729216E0,2.3285995E1,2.2689386E1,9.343712E0,9.244194E1],"tree_param":{"num_deleted":"0","num_feature":"5","num_nodes":"45","size_leaf_vector":"1"}},{"base_weights":[1.8393911E-3,-1.6468553E-1,1.7439836E-1,-1.9369146E-1,5.413185E-1,1.1610381E-1,5.1595443E-1,-1.458614E-1,-2.5948439E-2,4.4354912E-2,9.7514846E-4,2.2954464E-1,-2.1915098E-1,7.965E-2,2.8718352E-1,-3.2172933E-1,2.8486166E-3,3.6713964E-1,-4.546729E-3,-3.3556882E-1,5.103488E-1,9.128266E-1,8.804957E-3,6.614202E-3,-2.0099575E-2,1.9796712E-2,-9.0646595E-3,3.1227712E-2,8.619523E-3,-1.9794712E-2,1.0018833E-2,-2.5718829E-2,-8.141905E-3,3.5265025E-2,5.644604E-3,9.930603E-4,8.016861E-2,-1.3234498E-2,4.8264727E-2],"categories":[],"categories_nodes":[],"categories_segments":[],"categories_sizes":[],"default_left":[0,0,0,0,0,0,0,0,0,0,0,0,0,0,0,0,0,0,0,0,0,0,0,0,0,0,0,0,0,0,0,0,0,0,0,0,0,0,0],"id":17,"left_children":[1,3,5,7,9,11,13,15,-1,-1,-1,17,19,-1,21,23,25,27,29,31,33,35,37,-1,-1,-1,-1,-1,-1,-1,-1,-1,-1,-1,-1,-1,-1,-1,-1],"loss_changes":[5.4275746E0,2.0733654E0,1.7869253E0,1.3722875E0,7.1471834E-1,3.1127014E0,2.8029473E0,2.1593466E0,0E0,0E0,0E0,1.955287E0,1.9436415E0,0E0,2.105311E0,1.4313788E0,3.380347E0,1.8079481E0,1.959203E0,4.9073482E-1,1.7366177E-1,2.2662032E0,2.7164237E0,0E0,0E0,0E0,0E0,0E0,0E0,0E0,0E0,0E0,0E0,0E0,0E0,0E0,0E0,0E0,0E0],"parents":[2147483647,0,0,1,1,2,2,3,3,4,4,5,5,6,6,7,7,11,11,12,12,14,14,15,15,16,16,17,17,18,18,19,19,20,20,21,21,22,22],"right_children":[2,4,6,8,10,12,14,16,-1,-1,-1,18,20,-1,22,24,26,28,30,32,34,36,38,-1,-1,-1,-1,-1,-1,-1,-1,-1,-1,-1,-1,-1,-1,-1,-1],"split_conditions":[1.6000226E0,4.9092317E0,4.1651173E0,3.3194132E0,-4.4569774E0,7.029496E0,4.2701025E0,1.985735E0,-2.5948439E-2,4.4354912E-2,9.7514846E-4,8.205395E-1,8.798771E0,7.965E-2,-1.2934806E0,-3.0734925E0,2.2059126E0,2.2553072E0,2.3860967E0,3.5139446E0,3.5091546E0,3.1249075E0,2.5600507E0,6.614202E-3,-2.0099575E-2,1.9796712E-2,-9.0646595E-3,3.1227712E-2,8.619523E-3,-1.9794712E-2,1.0018833E-2,-2.5718829E-2,-8.141905E-3,3.5265025E-2,5.644604E-3,9.930603E-4,8.016861E-2,-1.3234498E-2,4.8264727E-2],"split_indices":[3,0,4,4,3,3,4,4,0,0,0,1,2,0,1,2,4,0,0,2,4,2,1,0,0,0,0,0,0,0,0,0,0,0,0,0,0,0,0],"split_type":[0,0,0,0,0,0,0,0,0,0,0,0,0,0,0,0,0,0,0,0,0,0,0,0,0,0,0,0,0,0,0,0,0,0,0,0,0,0,0],"sum_hessian":[1.8688184E2,9.512694E1,9.1754906E1,9.206992E1,3.05701E0,7.952246E1,1.2232446E1,8.152987E1,1.0540055E1,1.4176108E0,1.6393992E0,5.9652905E1,1.9869558E1,1.0983155E0,1.11341305E1,3.6821014E1,4.470886E1,3.721197E1,2.2440933E1,1.7600733E1,2.2688258E0,2.7267656E0,8.407365E0,5.4341106E0,3.1386902E1,1.3895697E1,3.081316E1,1.5076829E1,2.2135141E1,7.392112E0,1.50488205E1,7.6763735E0,9.924358E0,1.0025455E0,1.2662804E0,1.6377295E0,1.089036E0,7.1003795E0,1.3069855E0],"tree_param":{"num_deleted":"0","num_feature":"5","num_nodes":"39","size_leaf_vector":"1"}},{"base_weights":[-7.360999E-4,1.4102265E-1,-1.16070725E-1,9.567824E-2,6.679137E-1,-1.9777432E-1,3.1755377E-2,4.9143165E-2,4.6712837E-1,3.6292933E-2,5.554524E-3,-6.7119265E-1,-1.6743802E-1,4.450311E-1,-4.420212E-2,-2.9950202E-1,8.813942E-2,-3.0108808E-2,6.0166335E-1,6.783504E-3,-4.380492E-2,-2.06391E-1,1.1924995E-1,-6.3465303E-3,3.5362303E-2,3.233199E-1,-1.1052872E-1,3.4148048E-3,-3.37437E-2,1.8884175E-2,-1.4732868E-4,1.7495979E-2,3.711545E-2,-8.440457E-3,-4.0606532E-2,-3.3754557E-3,2.1056004E-2,-1.5379547E-2,2.4417276E-2,2.687456E-2,-1.921658E-2,-2.557066E-2,7.177789E-4],"categories":[],"categories_nodes":[],"categories_segments":[],"categories_sizes":[],"default_left":[0,0,0,0,0,0,0,0,0,0,0,0,0,0,0,0,0,0,0,0,0,0,0,0,0,0,0,0,0,0,0,0,0,0,0,0,0,0,0,0,0,0,0],"id":18,"left_children":[1,3,5,7,9,11,13,15,17,-1,-1,19,21,23,25,27,29,-1,31,-1,-1,33,35,37,-1,39,41,-1,-1,-1,-1,-1,-1,-1,-1,-1,-1,-1,-1,-1,-1,-1,-1],"loss_changes":[6.3382983E0,4.091203E0,2.587989E0,2.76521E0,3.5862064E-1,1.8667321E0,2.4352336E0,1.9904671E0,2.9288068E0,0E0,0E0,1.4359291E0,1.4857287E0,1.4292161E0,1.6424487E0,2.0838675E0,3.448141E0,0E0,3.1903887E-1,0E0,0E0,2.4934626E0,9.4650567E-1,9.5707536E-1,0E0,1.7723917E0,2.8400214E0,0E0,0E0,0E0,0E0,0E0,0E0,0E0,0E0,0E0,0E0,0E0,0E0,0E0,0E0,0E0,0E0],"parents":[2147483647,0,0,1,1,2,2,3,3,4,4,5,5,6,6,7,7,8,8,11,11,12,12,13,13,14,14,15,15,16,16,18,18,21,21,22,22,23,23,25,25,26,26],"right_children":[2,4,6,8,10,12,14,16,18,-1,-1,20,22,24,26,28,30,-1,32,-1,-1,34,36,38,-1,40,42,-1,-1,-1,-1,-1,-1,-1,-1,-1,-1,-1,-1,-1,-1,-1,-1],"split_conditions":[4.9922398E-1,4.0819936E0,1.2438152E0,2.4452498E0,2.5600507E0,9.108223E-1,2.0423253E0,1.4100639E0,-2.6818428E0,3.6292933E-2,5.554524E-3,-3.3331835E0,1.0301017E1,7.884882E-1,4.3773763E-2,1.2323678E0,2.216795E0,-3.0108808E-2,2.0454721E0,6.783504E-3,-4.380492E-2,8.724806E0,3.0282385E0,4.897492E0,3.5362303E-2,2.949253E0,3.1492007E0,3.4148048E-3,-3.37437E-2,1.8884175E-2,-1.4732868E-4,1.7495979E-2,3.711545E-2,-8.440457E-3,-4.0606532E-2,-3.3754557E-3,2.1056004E-2,-1.5379547E-2,2.4417276E-2,2.687456E-2,-1.921658E-2,-2.557066E-2,7.177789E-4],"split_indices":[3,4,1,2,1,3,3,0,1,0,0,2,3,3,2,0,0,0,4,0,0,3,0,2,0,1,2,0,0,0,0,0,0,0,0,0,0,0,0,0,0,0,0],"split_type":[0,0,0,0,0,0,0,0,0,0,0,0,0,0,0,0,0,0,0,0,0,0,0,0,0,0,0,0,0,0,0,0,0,0,0,0,0,0,0,0,0,0,0],"sum_hessian":[3.856696E2,1.7291525E2,2.1275432E2,1.6030127E2,1.2613992E1,1.3680449E2,7.594984E1,1.4346086E2,1.6840399E1,1.1150103E1,1.4638896E0,6.966261E0,1.2983823E2,1.1037447E1,6.4912384E1,1.3759961E1,1.2970091E2,1.4935389E0,1.534686E1,1.4792539E0,5.4870067E0,1.14553635E2,1.5284594E1,4.414356E0,6.6230903E0,9.331423E0,5.5580963E1,7.3632936E0,6.3966675E0,3.0284887E1,9.9416016E1,6.7510347E0,8.595824E0,1.09065575E2,5.4880652E0,9.922296E0,5.362298E0,2.9786901E0,1.4356662E0,7.3480015E0,1.9834211E0,1.2466812E1,4.311415E1],"tree_param":{"num_deleted":"0","num_feature":"5","num_nodes":"43","size_leaf_vector":"1"}},{"base_weights":[-4.4984632E-4,5.437279E-1,-3.351356E-2,6.757913E-1,-2.3394066E-1,4.310161E-2,-1.2779236E-1,8.969076E-1,3.6301494E-1,-1.990296E-2,1.54898E-3,1.2593642E-3,3.5765088E-1,-3.0385146E-1,-3.4470838E-2,5.148972E-2,1.1394461E-2,-2.3724189E-2,6.9830775E-1,-1.3534112E-1,1.0356539E-1,-3.1902543E-1,5.0663716E-1,-3.1199707E-2,-2.0739733E-1,4.116183E-2,-5.5943914E-2,5.1258835E-3,4.897059E-2,2.588499E-2,-8.1792865E-3,-1.234089E-2,7.7868276E-3,-2.4244148E-2,2.7194382E-3,3.649425E-2,-3.7838914E-3,2.286878E-2,-1.4612985E-2,1.5260463E-2,-5.654058E-3],"categories":[],"categories_nodes":[],"categories_segments":[],"categories_sizes":[],"default_left":[0,0,0,0,0,0,0,0,0,0,0,0,0,0,0,0,0,0,0,0,0,0,0,0,0,0,0,0,0,0,0,0,0,0,0,0,0,0,0,0,0],"id":19,"left_children":[1,3,5,7,9,11,13,15,17,-1,-1,19,21,23,25,-1,-1,-1,27,29,31,33,35,-1,37,-1,39,-1,-1,-1,-1,-1,-1,-1,-1,-1,-1,-1,-1,-1,-1],"loss_changes":[6.0557427E0,2.1380148E0,2.29727E0,8.319335E-1,1.6630748E-1,2.3131223E0,2.3307252E0,5.765891E-1,2.7495596E0,0E0,0E0,2.1962159E0,2.241901E0,1.3909607E0,1.7820653E0,0E0,0E0,0E0,9.972904E-1,1.326044E0,1.6808648E0,2.9497692E-1,2.3039155E0,0E0,2.3527026E0,0E0,1.951374E0,0E0,0E0,0E0,0E0,0E0,0E0,0E0,0E0,0E0,0E0,0E0,0E0,0E0,0E0],"parents":[2147483647,0,0,1,1,2,2,3,3,4,4,5,5,6,6,7,7,8,8,11,11,12,12,13,13,14,14,18,18,19,19,20,20,21,21,22,22,24,24,26,26],"right_children":[2,4,6,8,10,12,14,16,18,-1,-1,20,22,24,26,-1,-1,-1,28,30,32,34,36,-1,38,-1,40,-1,-1,-1,-1,-1,-1,-1,-1,-1,-1,-1,-1,-1,-1],"split_conditions":[1.2467805E0,3.7101564E0,4.16033E-1,3.085796E0,2.2124301E-1,4.5826993E0,4.7544926E-1,1.4222271E0,4.1215043E0,-1.990296E-2,1.54898E-3,-9.4505733E-1,-6.8354096E0,1.8713343E0,-4.4999833E0,5.148972E-2,1.1394461E-2,-2.3724189E-2,-3.110763E-1,-1.1801755E1,-2.9300268E0,-4.739507E0,4.8923073E0,-3.1199707E-2,1.9745148E0,4.116183E-2,1.641642E0,5.1258835E-3,4.897059E-2,2.588499E-2,-8.1792865E-3,-1.234089E-2,7.7868276E-3,-2.4244148E-2,2.7194382E-3,3.649425E-2,-3.7838914E-3,2.286878E-2,-1.4612985E-2,1.5260463E-2,-5.654058E-3],"split_indices":[4,3,1,0,1,0,3,2,0,0,0,3,3,4,2,0,0,0,1,3,1,2,0,0,4,0,4,0,0,0,0,0,0,0,0,0,0,0,0,0,0],"split_type":[0,0,0,0,0,0,0,0,0,0,0,0,0,0,0,0,0,0,0,0,0,0,0,0,0,0,0,0,0,0,0,0,0,0,0,0,0,0,0,0,0],"sum_hessian":[3.3455695E2,1.8278368E1,3.162786E2,1.573693E1,2.5414376E0,1.7478406E2,1.4149452E2,8.125245E0,7.6116843E0,1.2589524E0,1.2824852E0,1.5514961E2,1.9634441E1,4.823641E1,9.325811E1,6.3288817E0,1.7963632E0,2.0574434E0,5.554241E0,6.630085E1,8.884876E1,3.3369837E0,1.6297457E1,9.901805E0,3.8334602E1,1.365789E0,9.189233E1,2.2179885E0,3.3362525E0,2.0302582E0,6.427059E1,1.1031298E1,7.781747E1,2.103964E0,1.2330196E0,1.159771E1,4.699748E0,3.842738E0,3.4491867E1,1.1959161E1,7.993317E1],"tree_param":{"num_deleted":"0","num_feature":"5","num_nodes":"41","size_leaf_vector":"1"}},{"base_weights":[2.3213052E-3,-1.6045396E-1,1.6847056E-1,-1.8939239E-1,5.320321E-1,1.11038245E-1,5.0422376E-1,-1.19725995E-1,-4.0799516E-1,4.306775E-2,1.1057276E-3,2.2006896E-1,-2.1632706E-1,7.59885E-2,2.8238463E-1,-1.7693612E-1,3.4169784E-1,1.9961696E-3,-4.4447234E-1,-8.730589E-2,3.1575623E-1,-3.3232662E-1,4.9454618E-1,8.8314456E-1,9.665439E-3,-5.6860493E-3,-2.5435526E-2,6.130758E-4,4.2980686E-2,-2.4083268E-2,-7.1858685E-3,4.560456E-2,-1.543704E-2,-1.6371703E-2,2.3921398E-2,-2.559393E-2,-8.031581E-3,3.4243017E-2,5.39931E-3,1.0019862E-3,7.64353E-2,-1.3080846E-2,4.6673514E-2],"categories":[],"categories_nodes":[],"categories_segments":[],"categories_sizes":[],"default_left":[0,0,0,0,0,0,0,0,0,0,0,0,0,0,0,0,0,0,0,0,0,0,0,0,0,0,0,0,0,0,0,0,0,0,0,0,0,0,0,0,0,0,0],"id":20,"left_children":[1,3,5,7,9,11,13,15,17,-1,-1,19,21,-1,23,25,27,-1,29,31,33,35,37,39,41,-1,-1,-1,-1,-1,-1,-1,-1,-1,-1,-1,-1,-1,-1,-1,-1,-1,-1],"loss_changes":[5.101852E0,2.0104508E0,1.7440343E0,1.3554623E0,6.6695905E-1,2.9385328E0,2.5790553E0,1.9437473E0,3.750658E-1,0E0,0E0,1.8291688E0,1.8746109E0,0E0,1.9881799E0,1.2871778E0,1.3903917E0,0E0,1.5790796E-1,3.6730886E0,5.066787E0,4.8590064E-1,1.6966414E-1,2.083336E0,2.5982273E0,0E0,0E0,0E0,0E0,0E0,0E0,0E0,0E0,0E0,0E0,0E0,0E0,0E0,0E0,0E0,0E0,0E0,0E0],"parents":[2147483647,0,0,1,1,2,2,3,3,4,4,5,5,6,6,7,7,8,8,11,11,12,12,14,14,15,15,16,16,18,18,19,19,20,20,21,21,22,22,23,23,24,24],"right_children":[2,4,6,8,10,12,14,16,18,-1,-1,20,22,-1,24,26,28,-1,30,32,34,36,38,40,42,-1,-1,-1,-1,-1,-1,-1,-1,-1,-1,-1,-1,-1,-1,-1,-1,-1,-1],"split_conditions":[1.6000226E0,4.9092317E0,4.1651173E0,1.0328476E0,-4.4569774E0,7.029496E0,4.2701025E0,5.9124373E-2,-4.69073E0,4.306775E-2,1.1057276E-3,1.7756793E0,8.798771E0,7.59885E-2,-1.2934806E0,3.3194132E0,-1.1524261E-1,1.9961696E-3,2.8404882E0,-1.7939304E0,-7.795384E-1,3.5139446E0,3.5091546E0,3.1249075E0,2.5600507E0,-5.6860493E-3,-2.5435526E-2,6.130758E-4,4.2980686E-2,-2.4083268E-2,-7.1858685E-3,4.560456E-2,-1.543704E-2,-1.6371703E-2,2.3921398E-2,-2.559393E-2,-8.031581E-3,3.4243017E-2,5.39931E-3,1.0019862E-3,7.64353E-2,-1.3080846E-2,4.6673514E-2],"split_indices":[3,0,4,2,3,3,4,2,3,0,0,4,2,0,1,4,3,0,1,2,2,2,4,2,1,0,0,0,0,0,0,0,0,0,0,0,0,0,0,0,0,0,0],"split_type":[0,0,0,0,0,0,0,0,0,0,0,0,0,0,0,0,0,0,0,0,0,0,0,0,0,0,0,0,0,0,0,0,0,0,0,0,0,0,0,0,0,0,0],"sum_hessian":[1.8664363E2,9.4296394E1,9.234724E1,9.121126E1,3.0851412E0,7.9994484E1,1.23527565E1,7.034177E1,2.0869488E1,1.455757E0,1.6293842E0,6.0254246E1,1.9740234E1,1.1656787E0,1.11870775E1,6.313095E1,7.210816E0,1.5644519E0,1.9305037E1,1.4325202E1,4.5929047E1,1.742874E1,2.3114944E0,2.7940052E0,8.393072E0,5.4155174E1,8.975775E0,5.0330586E0,2.177757E0,1.6645094E1,2.659943E0,2.032584E0,1.2292618E1,9.066807E0,3.686224E1,7.550937E0,9.877802E0,1.0318209E0,1.2796736E0,1.6367457E0,1.1572595E0,7.0419536E0,1.3511186E0],"tree_param":{"num_deleted":"0","num_feature":"5","num_nodes":"43","size_leaf_vector":"1"}},{"base_weights":[-1.0663237E-3,1.3512816E-1,-1.1157406E-1,9.084092E-2,6.54496E-1,-1.8882127E-1,3.4158535E-2,4.546915E-2,4.551706E-1,3.5632204E-2,5.2206386E-3,-6.539955E-1,-1.5948586E-1,4.8001504E-1,-5.1969256E-2,-2.9581428E-1,8.3712414E-2,-2.955618E-2,5.87854E-1,6.736246E-3,-4.272022E-2,-4.6771327E-1,-1.2514144E-1,6.719423E-1,-9.740467E-3,-3.5356063E-1,6.8176955E-2,3.1360497E-3,-3.3019047E-2,1.8326966E-2,-2.4929302E-4,1.6931796E-2,3.640814E-2,-1.0259343E-2,-3.938395E-2,2.5265634E-2,-7.9731215E-3,6.174275E-3,3.7714332E-2,-2.6566168E-2,8.650373E-3,1.709592E-2,-3.8108162E-3],"categories":[],"categories_nodes":[],"categories_segments":[],"categories_sizes":[],"default_left":[0,0,0,0,0,0,0,0,0,0,0,0,0,0,0,0,0,0,0,0,0,0,0,0,0,0,0,0,0,0,0,0,0,0,0,0,0,0,0,0,0,0,0],"id":21,"left_children":[1,3,5,7,9,11,13,15,17,-1,-1,19,21,23,25,27,29,-1,31,-1,-1,33,35,37,-1,39,41,-1,-1,-1,-1,-1,-1,-1,-1,-1,-1,-1,-1,-1,-1,-1,-1],"loss_changes":[5.8251853E0,3.9284043E0,2.4117696E0,2.6392527E0,3.561635E-1,1.8033905E0,2.899889E0,1.9068909E0,2.805984E0,0E0,0E0,1.3749969E0,1.3475652E0,1.7134199E0,2.330411E0,1.9695803E0,3.2744074E0,0E0,3.2050467E-1,0E0,0E0,9.262767E-1,2.6960702E0,3.4663582E-1,0E0,1.8043253E0,1.8582832E0,0E0,0E0,0E0,0E0,0E0,0E0,0E0,0E0,0E0,0E0,0E0,0E0,0E0,0E0,0E0,0E0],"parents":[2147483647,0,0,1,1,2,2,3,3,4,4,5,5,6,6,7,7,8,8,11,11,12,12,13,13,14,14,15,15,16,16,18,18,21,21,22,22,23,23,25,25,26,26],"right_children":[2,4,6,8,10,12,14,16,18,-1,-1,20,22,24,26,28,30,-1,32,-1,-1,34,36,38,-1,40,42,-1,-1,-1,-1,-1,-1,-1,-1,-1,-1,-1,-1,-1,-1,-1,-1],"split_conditions":[4.9922398E-1,4.0819936E0,1.3249072E0,2.4452498E0,2.5600507E0,9.108223E-1,4.3773763E-2,1.4100639E0,-2.6818428E0,3.5632204E-2,5.2206386E-3,-3.3331835E0,1.3644233E0,2.949253E0,3.3908265E0,1.2323678E0,2.216795E0,-2.955618E-2,2.0454721E0,6.736246E-3,-4.272022E-2,3.169378E-1,1.501472E0,-3.6393437E0,-9.740467E-3,3.856211E0,2.4006987E0,3.1360497E-3,-3.3019047E-2,1.8326966E-2,-2.4929302E-4,1.6931796E-2,3.640814E-2,-1.0259343E-2,-3.938395E-2,2.5265634E-2,-7.9731215E-3,6.174275E-3,3.7714332E-2,-2.6566168E-2,8.650373E-3,1.709592E-2,-3.8108162E-3],"split_indices":[3,4,1,2,1,3,2,0,1,0,0,2,4,1,2,0,0,0,4,0,0,1,4,2,0,0,4,0,0,0,0,0,0,0,0,0,0,0,0,0,0,0,0],"split_type":[0,0,0,0,0,0,0,0,0,0,0,0,0,0,0,0,0,0,0,0,0,0,0,0,0,0,0,0,0,0,0,0,0,0,0,0,0,0,0,0,0,0,0],"sum_hessian":[3.850398E2,1.7237485E2,2.1266496E2,1.5991368E2,1.2461163E1,1.387979E2,7.386707E1,1.4320451E2,1.670916E1,1.10025835E1,1.4585792E0,6.9706106E0,1.3182729E2,1.1218603E1,6.264847E1,1.3751438E1,1.2945308E2,1.4916214E0,1.5217539E1,1.4787309E0,5.4918795E0,1.1951253E1,1.1987603E2,8.737761E0,2.4808419E0,1.7294077E1,4.5354393E1,7.3505015E0,6.4009366E0,3.0157913E1,9.9295166E1,6.7109594E0,8.506579E0,7.4664426E0,4.484811E0,5.4804564E0,1.1439558E2,1.4669204E0,7.2708406E0,1.2922554E1,4.3715224E0,1.5189709E1,3.0164686E1],"tree_param":{"num_deleted":"0","num_feature":"5","num_nodes":"43","size_leaf_vector":"1"}},{"base_weights":[-3.8953766E-4,5.261992E-1,-3.258707E-2,6.5390885E-1,-2.3151898E-1,4.1561022E-2,-1.2424299E-1,8.680162E-1,3.5059234E-1,-1.976207E-2,1.5779242E-3,1.4862894E-2,5.1733387E-1,-2.961982E-1,-3.3848654E-2,4.9857862E-2,1.0977503E-2,-2.3541918E-2,6.758702E-1,4.4099312E-2,-4.4539228E-1,-3.1395236E-1,4.8600283E-2,-1.6822168E-1,-5.330327E-1,4.02756E-2,-5.5037886E-2,4.7652554E-3,4.7511347E-2,2.2053931E-4,2.8299678E-2,-2.5350718E-2,-4.5564524E-3,-2.3790943E-2,8.857854E-4,-2.0761276E-2,4.19533E-3,-2.9245531E-2,3.532142E-3,1.4644901E-2,-5.5278135E-3],"categories":[],"categories_nodes":[],"categories_segments":[],"categories_sizes":[],"default_left":[0,0,0,0,0,0,0,0,0,0,0,0,0,0,0,0,0,0,0,0,0,0,0,0,0,0,0,0,0,0,0,0,0,0,0,0,0,0,0,0,0],"id":22,"left_children":[1,3,5,7,9,11,13,15,17,-1,-1,19,21,23,25,-1,-1,-1,27,29,31,33,-1,35,37,-1,39,-1,-1,-1,-1,-1,-1,-1,-1,-1,-1,-1,-1,-1,-1],"loss_changes":[5.6993103E0,2.0256848E0,2.1579404E0,7.8909636E-1,1.6461112E-1,2.2260828E0,2.1957815E0,5.508628E-1,2.627986E0,0E0,0E0,2.2741244E0,3.825626E0,1.3884187E0,1.7186974E0,0E0,0E0,0E0,9.611778E-1,3.2794101E0,1.7421961E-1,2.2580892E-1,0E0,2.0974708E0,5.626416E-1,0E0,1.8242221E0,0E0,0E0,0E0,0E0,0E0,0E0,0E0,0E0,0E0,0E0,0E0,0E0,0E0,0E0],"parents":[2147483647,0,0,1,1,2,2,3,3,4,4,5,5,6,6,7,7,8,8,11,11,12,12,13,13,14,14,18,18,19,19,20,20,21,21,23,23,24,24,26,26],"right_children":[2,4,6,8,10,12,14,16,18,-1,-1,20,22,24,26,-1,-1,-1,28,30,32,34,-1,36,38,-1,40,-1,-1,-1,-1,-1,-1,-1,-1,-1,-1,-1,-1,-1,-1],"split_conditions":[1.2467805E0,3.7101564E0,4.16033E-1,3.085796E0,2.2124301E-1,1.9686763E-1,4.7544926E-1,1.4222271E0,4.1215043E0,-1.976207E-2,1.5779242E-3,4.597067E0,1.901525E0,-1.8157653E0,-4.4999833E0,4.9857862E-2,1.0977503E-2,-2.3541918E-2,1.1430225E0,7.31835E0,1.3380397E1,1.6629927E0,4.8600283E-2,-4.3769603E0,4.204616E0,4.02756E-2,1.641642E0,4.7652554E-3,4.7511347E-2,2.2053931E-4,2.8299678E-2,-2.5350718E-2,-4.5564524E-3,-2.3790943E-2,8.857854E-4,-2.0761276E-2,4.19533E-3,-2.9245531E-2,3.532142E-3,1.4644901E-2,-5.5278135E-3],"split_indices":[4,3,1,0,1,1,3,2,0,0,0,4,0,3,2,0,0,0,4,3,3,0,0,3,1,0,4,0,0,0,0,0,0,0,0,0,0,0,0,0,0],"split_type":[0,0,0,0,0,0,0,0,0,0,0,0,0,0,0,0,0,0,0,0,0,0,0,0,0,0,0,0,0,0,0,0,0,0,0,0,0,0,0,0,0],"sum_hessian":[3.341348E2,1.8368946E1,3.1576587E2,1.5836744E1,2.532202E0,1.7485648E2,1.4090938E2,8.192212E0,7.644532E0,1.2511749E0,1.2810271E0,1.6654216E2,8.314321E0,4.7766834E1,9.314255E1,6.383276E0,1.808936E0,2.0415268E0,5.6030054E0,1.5744508E2,9.097072E0,3.0490937E0,5.2652273E0,3.2120445E1,1.5646391E1,1.3820193E0,9.176053E1,2.2304778E0,3.3725276E0,1.472552E2,1.0189876E1,7.38186E0,1.7152122E0,1.756992E0,1.2921016E0,1.5898346E1,1.6222097E1,1.4436823E1,1.2095679E0,1.2038578E1,7.9721954E1],"tree_param":{"num_deleted":"0","num_feature":"5","num_nodes":"41","size_leaf_vector":"1"}},{"base_weights":[2.8938698E-3,-1.5647638E-1,1.6339746E-1,-1.852436E-1,5.183364E-1,1.0666488E-1,4.9456632E-1,-1.3875204E-1,-2.5628254E-2,4.1754365E-2,1.0580494E-3,2.121491E-1,-2.1410903E-1,7.29464E-2,2.7865547E-1,-3.2576454E-1,3.4480967E-4,3.402169E-1,-9.423085E-3,-3.2970804E-1,4.8161697E-1,8.565666E-1,1.1126805E-2,1.170782E-3,-1.922421E-2,1.57E-2,-8.677904E-3,2.8947016E-2,7.852659E-3,-1.9711442E-2,9.428041E-3,-2.5489045E-2,-7.954725E-3,3.3356987E-2,5.2238326E-3,9.849194E-4,7.329084E-2,-1.2890148E-2,4.5007948E-2],"categories":[],"categories_nodes":[],"categories_segments":[],"categories_sizes":[],"default_left":[0,0,0,0,0,0,0,0,0,0,0,0,0,0,0,0,0,0,0,0,0,0,0,0,0,0,0,0,0,0,0,0,0,0,0,0,0,0,0],"id":23,"left_children":[1,3,5,7,9,11,13,15,-1,-1,-1,17,19,-1,21,23,25,27,29,31,33,35,37,-1,-1,-1,-1,-1,-1,-1,-1,-1,-1,-1,-1,-1,-1,-1,-1],"loss_changes":[4.8181067E0,1.9309261E0,1.7102547E0,1.3196867E0,6.324098E-1,2.7992966E0,2.3937824E0,2.1175175E0,0E0,0E0,0E0,1.7554162E0,1.8186328E0,0E0,1.8805354E0,7.208984E-1,2.655127E0,1.6212926E0,1.8716115E0,4.8085904E-1,1.6448009E-1,1.9367754E0,2.4722285E0,0E0,0E0,0E0,0E0,0E0,0E0,0E0,0E0,0E0,0E0,0E0,0E0,0E0,0E0,0E0,0E0],"parents":[2147483647,0,0,1,1,2,2,3,3,4,4,5,5,6,6,7,7,11,11,12,12,14,14,15,15,16,16,17,17,18,18,19,19,20,20,21,21,22,22],"right_children":[2,4,6,8,10,12,14,16,-1,-1,-1,18,20,-1,22,24,26,28,30,32,34,36,38,-1,-1,-1,-1,-1,-1,-1,-1,-1,-1,-1,-1,-1,-1,-1,-1],"split_conditions":[1.6000226E0,4.9092317E0,4.1651173E0,3.3194132E0,-4.4569774E0,7.029496E0,4.2701025E0,1.9439381E0,-2.5628254E-2,4.1754365E-2,1.0580494E-3,8.205395E-1,8.798771E0,7.29464E-2,-1.2934806E0,-3.0734925E0,2.2059126E0,2.2553072E0,2.3860967E0,3.5139446E0,3.5091546E0,3.1249075E0,2.5600507E0,1.170782E-3,-1.922421E-2,1.57E-2,-8.677904E-3,2.8947016E-2,7.852659E-3,-1.9711442E-2,9.428041E-3,-2.5489045E-2,-7.954725E-3,3.3356987E-2,5.2238326E-3,9.849194E-4,7.329084E-2,-1.2890148E-2,4.5007948E-2],"split_indices":[3,0,4,4,3,3,4,4,0,0,0,1,2,0,1,2,4,0,0,2,4,2,1,0,0,0,0,0,0,0,0,0,0,0,0,0,0,0,0],"split_type":[0,0,0,0,0,0,0,0,0,0,0,0,0,0,0,0,0,0,0,0,0,0,0,0,0,0,0,0,0,0,0,0,0,0,0,0,0,0,0],"sum_hessian":[1.863586E2,9.352203E1,9.283656E1,9.039403E1,3.1280022E0,8.038746E1,1.2449102E1,8.039843E1,9.995601E0,1.4955331E0,1.6324689E0,6.0749165E1,1.9638296E1,1.2241912E0,1.1224911E1,3.3720284E1,4.6678143E1,3.8158337E1,2.2590828E1,1.7291334E1,2.346963E0,2.8552566E0,8.369655E0,4.9407897E0,2.8779495E1,1.636188E1,3.0316263E1,1.5628459E1,2.2529877E1,7.337768E0,1.525306E1,7.4453077E0,9.846025E0,1.0577111E0,1.2892518E0,1.6378424E0,1.217414E0,6.9709725E0,1.3986816E0],"tree_param":{"num_deleted":"0","num_feature":"5","num_nodes":"39","size_leaf_vector":"1"}},{"base_weights":[-1.3246555E-3,1.3021848E-1,-1.0777462E-1,4.5290545E-2,3.8617092E-1,-1.8213819E-1,3.2705884E-2,1.9865431E-1,-7.771771E-2,-4.0380463E-1,4.984736E-1,-6.395883E-1,-1.5332814E-1,5.050854E-1,-4.536047E-2,-1.4086027E-1,3.6045986E-1,-3.6968118E-1,8.296631E-2,2.3768088E-2,-3.9337005E-2,5.6688035E-1,2.3467338E-2,6.6552074E-3,-4.180051E-2,-4.5366374E-1,-1.19937375E-1,3.73569E-2,-1.8354012E-2,-3.0287427E-1,6.553874E-2,8.091952E-3,-2.2944512E-2,-2.6498748E-2,2.0420063E-2,-2.676848E-2,2.3414565E-2,-6.5402463E-3,1.7101724E-2,5.7730367E-3,2.92069E-2,-1.7461585E-2,2.6325231E-2,-2.7570775E-2,8.837066E-3,2.4788028E-2,-7.671845E-3,1.4271895E-2,-2.2198658E-2,1.6694749E-2,-3.7823026E-3],"categories":[],"categories_nodes":[],"categories_segments":[],"categories_sizes":[],"default_left":[0,0,0,0,0,0,0,0,0,0,0,0,0,0,0,0,0,0,0,0,0,0,0,0,0,0,0,0,0,0,0,0,0,0,0,0,0,0,0,0,0,0,0,0,0,0,0,0,0,0,0],"id":24,"left_children":[1,3,5,7,9,11,13,15,17,19,21,23,25,27,29,31,33,35,37,-1,-1,39,41,-1,-1,43,45,-1,-1,47,49,-1,-1,-1,-1,-1,-1,-1,-1,-1,-1,-1,-1,-1,-1,-1,-1,-1,-1,-1,-1],"loss_changes":[5.41104E0,3.739755E0,2.2371304E0,2.4851627E0,4.009927E0,1.7444472E0,2.780318E0,3.2672062E0,3.4725628E0,2.358903E0,1.2225819E0,1.3205919E0,1.2777374E0,2.5303981E0,1.8785856E0,1.9626839E0,1.9211316E0,3.8921738E0,2.710733E0,0E0,0E0,1.9122505E-1,1.2771E0,0E0,0E0,8.943405E-1,2.5698168E0,0E0,0E0,1.7678427E0,1.7800744E0,0E0,0E0,0E0,0E0,0E0,0E0,0E0,0E0,0E0,0E0,0E0,0E0,0E0,0E0,0E0,0E0,0E0,0E0,0E0,0E0],"parents":[2147483647,0,0,1,1,2,2,3,3,4,4,5,5,6,6,7,7,8,8,9,9,10,10,11,11,12,12,13,13,14,14,15,15,16,16,17,17,18,18,21,21,22,22,25,25,26,26,29,29,30,30],"right_children":[2,4,6,8,10,12,14,16,18,20,22,24,26,28,30,32,34,36,38,-1,-1,40,42,-1,-1,44,46,-1,-1,48,50,-1,-1,-1,-1,-1,-1,-1,-1,-1,-1,-1,-1,-1,-1,-1,-1,-1,-1,-1,-1],"split_conditions":[4.9922398E-1,2.794755E0,1.3249072E0,1.9141811E0,-3.123084E0,9.108223E-1,-1.2004327E-1,-1.1993178E0,2.1327116E0,-4.7413683E0,2.8404882E0,-3.3331835E0,1.3644233E0,4.450823E0,3.3908265E0,-2.8270895E0,9.4901246E-1,-3.9707285E-1,3.3434591E0,2.3768088E-2,-3.9337005E-2,-2.9300268E0,-1.2700298E0,6.6552074E-3,-4.180051E-2,4.376327E0,1.501472E0,3.73569E-2,-1.8354012E-2,1.6373267E0,2.4006987E0,8.091952E-3,-2.2944512E-2,-2.6498748E-2,2.0420063E-2,-2.676848E-2,2.3414565E-2,-6.5402463E-3,1.7101724E-2,5.7730367E-3,2.92069E-2,-1.7461585E-2,2.6325231E-2,-2.7570775E-2,8.837066E-3,2.4788028E-2,-7.671845E-3,1.4271895E-2,-2.2198658E-2,1.6694749E-2,-3.7823026E-3],"split_indices":[3,4,1,4,1,3,2,1,4,1,1,2,4,3,2,3,4,3,0,0,0,1,2,0,0,3,4,0,0,1,4,0,0,0,0,0,0,0,0,0,0,0,0,0,0,0,0,0,0,0,0],"split_type":[0,0,0,0,0,0,0,0,0,0,0,0,0,0,0,0,0,0,0,0,0,0,0,0,0,0,0,0,0,0,0,0,0,0,0,0,0,0,0,0,0,0,0,0,0,0,0,0,0,0,0],"sum_hessian":[3.8442435E2,1.7184612E2,2.1257823E2,1.299156E2,4.1930523E1,1.3880504E2,7.377319E1,5.7549404E1,7.2366196E1,4.8958397E0,3.7034683E1,6.967883E0,1.3183716E2,9.68703E0,6.408617E1,1.8616365E1,3.8933037E1,2.5227343E1,4.713885E1,1.412219E0,3.483621E0,3.220356E1,4.8311234E0,1.4775993E0,5.4902835E0,1.1931538E1,1.1990562E2,7.694832E0,1.9921976E0,1.877005E1,4.5316116E1,9.7897E0,8.826667E0,1.4753896E0,3.745765E1,2.136421E1,3.8631325E0,2.6098583E1,2.1040266E1,1.4689779E0,3.0734583E1,2.9507065E0,1.8804166E0,1.0438261E1,1.4932766E0,5.4752526E0,1.1443036E2,3.4330356E0,1.5337014E1,1.5151685E1,3.0164433E1],"tree_param":{"num_deleted":"0","num_feature":"5","num_nodes":"51","size_leaf_vector":"1"}},{"base_weights":[-3.3427542E-4,5.0826174E-1,-3.1601842E-2,6.561228E-1,-1.3369349E-1,4.053347E-2,-1.2112932E-1,9.0981483E-1,3.3764085E-1,-2.4553096E-2,1.9821022E-2,-1.2799415E-4,3.443717E-1,-2.8880548E-1,-3.3731416E-2,1.51665155E-2,4.962703E-2,-2.3366971E-2,6.533015E-1,-1.2906927E-1,9.539262E-2,-3.15752E-1,4.8817238E-1,-3.0642936E-2,-1.9224043E-1,1.2086553E-1,-1.4743453E-1,4.360795E-3,4.6092685E-2,2.6110753E-2,-7.870239E-3,2.6376877E-2,2.699951E-3,-2.3999942E-2,2.588866E-3,3.5081852E-2,-3.7763745E-3,2.2596462E-2,-1.3828046E-2,-2.7752111E-3,2.5634566E-2,-1.8086622E-2,-1.4092971E-4],"categories":[],"categories_nodes":[],"categories_segments":[],"categories_sizes":[],"default_left":[0,0,0,0,0,0,0,0,0,0,0,0,0,0,0,0,0,0,0,0,0,0,0,0,0,0,0,0,0,0,0,0,0,0,0,0,0,0,0,0,0,0,0],"id":25,"left_children":[1,3,5,7,9,11,13,15,17,-1,-1,19,21,23,25,-1,-1,-1,27,29,31,33,35,-1,37,39,41,-1,-1,-1,-1,-1,-1,-1,-1,-1,-1,-1,-1,-1,-1,-1,-1],"loss_changes":[5.339114E0,1.9334645E0,2.0475016E0,9.834633E-1,1.0416911E0,2.1732597E0,2.0621083E0,1.154294E-1,2.50907E0,0E0,0E0,1.9354457E0,2.1250455E0,1.3938985E0,1.6713923E0,0E0,0E0,0E0,9.3007946E-1,1.3162845E0,1.586272E0,2.856981E-1,2.1517162E0,0E0,2.2257266E0,2.8214128E0,1.6927669E0,0E0,0E0,0E0,0E0,0E0,0E0,0E0,0E0,0E0,0E0,0E0,0E0,0E0,0E0,0E0,0E0],"parents":[2147483647,0,0,1,1,2,2,3,3,4,4,5,5,6,6,7,7,8,8,11,11,12,12,13,13,14,14,18,18,19,19,20,20,21,21,22,22,24,24,25,25,26,26],"right_children":[2,4,6,8,10,12,14,16,18,-1,-1,20,22,24,26,-1,-1,-1,28,30,32,34,36,-1,38,40,42,-1,-1,-1,-1,-1,-1,-1,-1,-1,-1,-1,-1,-1,-1,-1,-1],"split_conditions":[1.2467805E0,3.2366676E0,4.16033E-1,3.085796E0,1.5137771E0,4.5826993E0,4.7544926E-1,1.5715039E0,4.1215043E0,-2.4553096E-2,1.9821022E-2,-9.4505733E-1,-6.8354096E0,1.8713343E0,2.7479835E0,1.51665155E-2,4.962703E-2,-2.3366971E-2,-3.110763E-1,-1.1801755E1,5.917414E-2,-4.739507E0,4.8923073E0,-3.0642936E-2,1.9745148E0,2.6583047E0,4.6270256E0,4.360795E-3,4.6092685E-2,2.6110753E-2,-7.870239E-3,2.6376877E-2,2.699951E-3,-2.3999942E-2,2.588866E-3,3.5081852E-2,-3.7763745E-3,2.2596462E-2,-1.3828046E-2,-2.7752111E-3,2.5634566E-2,-1.8086622E-2,-1.4092971E-4],"split_indices":[4,3,1,0,1,0,3,0,0,0,0,3,3,4,0,0,0,0,1,3,3,2,0,0,4,1,3,0,0,0,0,0,0,0,0,0,0,0,0,0,0,0,0],"split_type":[0,0,0,0,0,0,0,0,0,0,0,0,0,0,0,0,0,0,0,0,0,0,0,0,0,0,0,0,0,0,0,0,0,0,0,0,0,0,0,0,0,0,0],"sum_hessian":[3.3372925E2,1.844523E1,3.1528403E2,1.4974171E1,3.4710593E0,1.7490468E2,1.4037935E2,7.3013988E0,7.6727715E0,2.117348E0,1.3537115E0,1.551422E2,1.9762486E1,4.7309605E1,9.306975E1,1.4365277E0,5.864871E0,2.025906E0,5.6468654E0,6.5871895E1,8.92703E1,3.3210924E0,1.6441393E1,9.6338215E0,3.7675785E1,3.9415413E1,5.365433E1,2.243184E0,3.4036815E0,2.0197082E0,6.3852184E1,6.7768006E0,8.24935E1,2.0838265E0,1.2372658E0,1.1747929E1,4.693464E0,3.8562384E0,3.3819546E1,2.7772652E1,1.1642761E1,2.1013832E1,3.26405E1],"tree_param":{"num_deleted":"0","num_feature":"5","num_nodes":"43","size_leaf_vector":"1"}},{"base_weights":[3.3267522E-3,-1.5254915E-1,1.5818453E-1,-1.8115982E-1,5.0616807E-1,1.0257772E-1,4.8115772E-1,-1.1240184E-1,-4.0057722E-1,4.05467E-2,1.0405476E-3,2.0416962E-1,-2.1098424E-1,7.019115E-2,2.7119002E-1,-1.6941775E-1,3.3829606E-1,2.4333268E-3,-4.3801993E-1,-8.770145E-2,2.9313153E-1,-3.2631087E-1,4.6948656E-1,8.2598597E-1,9.99525E-3,-1.82272E-2,-3.186968E-3,7.993271E-4,4.156854E-2,-2.3802E-2,-6.8307216E-3,4.297675E-2,-1.5293847E-2,-1.6283998E-2,2.2236226E-2,-2.5365535E-2,-7.822973E-3,3.2672923E-2,4.9828305E-3,8.9913385E-4,7.000131E-2,-1.27969785E-2,4.348762E-2],"categories":[],"categories_nodes":[],"categories_segments":[],"categories_sizes":[],"default_left":[0,0,0,0,0,0,0,0,0,0,0,0,0,0,0,0,0,0,0,0,0,0,0,0,0,0,0,0,0,0,0,0,0,0,0,0,0,0,0,0,0,0,0],"id":26,"left_children":[1,3,5,7,9,11,13,15,17,-1,-1,19,21,-1,23,25,27,-1,29,31,33,35,37,39,41,-1,-1,-1,-1,-1,-1,-1,-1,-1,-1,-1,-1,-1,-1,-1,-1,-1,-1],"loss_changes":[4.540545E0,1.858623E0,1.6451085E0,1.3216496E0,5.993867E-1,2.647631E0,2.2515626E0,1.8654542E0,3.78325E-1,0E0,0E0,1.6423721E0,1.7619387E0,0E0,1.7752817E0,1.2785134E0,1.2955198E0,0E0,1.606164E-1,3.4277728E0,4.6427345E0,4.776547E-1,1.6490555E-1,1.7964814E0,2.367346E0,0E0,0E0,0E0,0E0,0E0,0E0,0E0,0E0,0E0,0E0,0E0,0E0,0E0,0E0,0E0,0E0,0E0,0E0],"parents":[2147483647,0,0,1,1,2,2,3,3,4,4,5,5,6,6,7,7,8,8,11,11,12,12,14,14,15,15,16,16,18,18,19,19,20,20,21,21,22,22,23,23,24,24],"right_children":[2,4,6,8,10,12,14,16,18,-1,-1,20,22,-1,24,26,28,-1,30,32,34,36,38,40,42,-1,-1,-1,-1,-1,-1,-1,-1,-1,-1,-1,-1,-1,-1,-1,-1,-1,-1],"split_conditions":[1.6000226E0,4.9092317E0,4.1651173E0,1.0328476E0,-4.4569774E0,7.029496E0,4.2701025E0,5.9124373E-2,-4.69073E0,4.05467E-2,1.0405476E-3,1.7756793E0,8.798771E0,7.019115E-2,-1.2934806E0,1.9418604E0,1.0508167E0,2.4333268E-3,2.8404882E0,-1.7939304E0,-7.795384E-1,3.5139446E0,3.118743E0,3.1249075E0,2.5600507E0,-1.82272E-2,-3.186968E-3,7.993271E-4,4.156854E-2,-2.3802E-2,-6.8307216E-3,4.297675E-2,-1.5293847E-2,-1.6283998E-2,2.2236226E-2,-2.5365535E-2,-7.822973E-3,3.2672923E-2,4.9828305E-3,8.9913385E-4,7.000131E-2,-1.27969785E-2,4.348762E-2],"split_indices":[3,0,4,2,3,3,4,2,3,0,0,4,2,0,1,4,1,0,1,2,2,2,1,2,1,0,0,0,0,0,0,0,0,0,0,0,0,0,0,0,0,0,0],"split_type":[0,0,0,0,0,0,0,0,0,0,0,0,0,0,0,0,0,0,0,0,0,0,0,0,0,0,0,0,0,0,0,0,0,0,0,0,0,0,0,0,0,0,0],"sum_hessian":[1.8610347E2,9.275427E1,9.334919E1,8.958809E1,3.1661823E0,8.0761894E1,1.25872965E1,6.936402E1,2.0224066E1,1.5328653E0,1.633317E0,6.1262226E1,1.9499666E1,1.2793822E0,1.1307915E1,6.2128506E1,7.2355185E0,1.5328557E0,1.869121E1,1.4314058E1,4.694817E1,1.711882E1,2.3808455E0,2.927456E0,8.380459E0,2.096635E1,4.1162155E1,4.999744E0,2.2357745E0,1.6083052E1,2.6081579E0,2.1293907E0,1.2184668E1,9.012053E0,3.793612E1,7.3256025E0,9.793218E0,1.0777851E0,1.3030604E0,1.6443044E0,1.2831515E0,6.937046E0,1.443413E0],"tree_param":{"num_deleted":"0","num_feature":"5","num_nodes":"43","size_leaf_vector":"1"}},{"base_weights":[-1.6272471E-3,1.2522876E-1,-1.03937306E-1,8.2760915E-2,6.319272E-1,-1.7633131E-1,3.2970913E-2,3.9013818E-2,4.3746492E-1,3.452162E-2,4.693283E-3,-6.277494E-1,-1.4794825E-1,4.6032518E-1,-4.8837952E-2,5.514898E-2,-3.724073E-2,-2.8659364E-2,5.6731224E-1,6.547039E-3,-4.1033696E-2,-4.4195232E-1,-1.1534307E-1,6.4862204E-1,-9.646954E-3,-3.3576033E-1,6.561142E-2,-1.4632463E-2,4.7359946E-3,1.6050505E-2,3.5389196E-2,-9.492981E-3,-3.7598852E-2,2.4236113E-2,-7.3973425E-3,6.0577267E-3,3.641076E-2,-2.5436062E-2,8.768628E-3,1.6314907E-2,-3.558752E-3],"categories":[],"categories_nodes":[],"categories_segments":[],"categories_sizes":[],"default_left":[0,0,0,0,0,0,0,0,0,0,0,0,0,0,0,0,0,0,0,0,0,0,0,0,0,0,0,0,0,0,0,0,0,0,0,0,0,0,0,0,0],"id":27,"left_children":[1,3,5,7,9,11,13,15,17,-1,-1,19,21,23,25,27,-1,-1,29,-1,-1,31,33,35,-1,37,39,-1,-1,-1,-1,-1,-1,-1,-1,-1,-1,-1,-1,-1,-1],"loss_changes":[5.005026E0,3.6525407E0,2.121504E0,2.4658098E0,3.4957218E-1,1.6981587E0,2.633227E0,1.8564241E0,2.6177402E0,0E0,0E0,1.2726882E0,1.2222984E0,1.6128252E0,2.1099067E0,1.9761518E0,0E0,0E0,3.2579374E-1,0E0,0E0,8.659558E-1,2.4374197E0,3.1553936E-1,0E0,1.7064528E0,1.6737688E0,0E0,0E0,0E0,0E0,0E0,0E0,0E0,0E0,0E0,0E0,0E0,0E0,0E0,0E0],"parents":[2147483647,0,0,1,1,2,2,3,3,4,4,5,5,6,6,7,7,8,8,11,11,12,12,13,13,14,14,15,15,18,18,21,21,22,22,23,23,25,25,26,26],"right_children":[2,4,6,8,10,12,14,16,18,-1,-1,20,22,24,26,28,-1,-1,30,-1,-1,32,34,36,-1,38,40,-1,-1,-1,-1,-1,-1,-1,-1,-1,-1,-1,-1,-1,-1],"split_conditions":[4.9922398E-1,4.0819936E0,1.3249072E0,2.4452498E0,2.5600507E0,9.108223E-1,4.3773763E-2,2.1099982E0,-2.6818428E0,3.452162E-2,4.693283E-3,-3.3331835E0,1.3644233E0,2.949253E0,3.3908265E0,1.4100639E0,-3.724073E-2,-2.8659364E-2,2.0454721E0,6.547039E-3,-4.1033696E-2,3.169378E-1,1.501472E0,-3.6393437E0,-9.646954E-3,3.856211E0,2.4006987E0,-1.4632463E-2,4.7359946E-3,1.6050505E-2,3.5389196E-2,-9.492981E-3,-3.7598852E-2,2.4236113E-2,-7.3973425E-3,6.0577267E-3,3.641076E-2,-2.5436062E-2,8.768628E-3,1.6314907E-2,-3.558752E-3],"split_indices":[3,4,1,2,1,3,2,2,1,0,0,2,4,1,2,0,0,0,4,0,0,1,4,2,0,0,4,0,0,0,0,0,0,0,0,0,0,0,0,0,0],"split_type":[0,0,0,0,0,0,0,0,0,0,0,0,0,0,0,0,0,0,0,0,0,0,0,0,0,0,0,0,0,0,0,0,0,0,0,0,0,0,0,0,0],"sum_hessian":[3.8363254E2,1.7117084E2,2.124617E2,1.5900732E2,1.2163525E1,1.3878653E2,7.367517E1,1.4253757E2,1.6469753E1,1.0715236E1,1.4482882E0,6.960845E0,1.3182568E2,1.1094215E1,6.2580956E1,1.4057349E2,1.9640741E0,1.4863778E0,1.4983376E1,1.4763341E0,5.484511E0,1.1906743E1,1.1991894E2,8.617434E0,2.4767818E0,1.7293295E1,4.528766E1,1.3706671E1,1.2686682E2,6.6349416E0,8.348434E0,7.456216E0,4.450527E0,5.4652457E0,1.1445369E2,1.4605398E0,7.1568937E0,1.292452E1,4.368775E0,1.5108508E1,3.0179152E1],"tree_param":{"num_deleted":"0","num_feature":"5","num_nodes":"41","size_leaf_vector":"1"}},{"base_weights":[-3.0660394E-4,4.9161756E-1,-3.0691365E-2,6.344564E-1,-1.3198128E-1,3.926004E-2,-1.1786867E-1,8.8009673E-1,3.2542804E-1,-2.4317889E-2,1.9445838E-2,1.3194509E-2,5.0001156E-1,-2.8116655E-1,-3.356045E-2,1.4765053E-2,4.7957104E-2,-2.3172779E-2,6.316226E-1,4.142984E-2,-4.37272E-1,-3.0782953E-1,4.658927E-2,-1.5443635E-1,-5.187133E-1,3.919143E-2,-5.439777E-2,4.0709265E-3,4.463908E-2,1.5805729E-4,2.6898984E-2,-2.4895122E-2,-4.61675E-3,-2.3407977E-2,9.234822E-4,-1.9970478E-2,4.5198123E-3,-2.8576655E-2,4.014637E-3,-2.9715493E-2,-9.4910304E-4],"categories":[],"categories_nodes":[],"categories_segments":[],"categories_sizes":[],"default_left":[0,0,0,0,0,0,0,0,0,0,0,0,0,0,0,0,0,0,0,0,0,0,0,0,0,0,0,0,0,0,0,0,0,0,0,0,0,0,0,0,0],"id":28,"left_children":[1,3,5,7,9,11,13,15,17,-1,-1,19,21,23,25,-1,-1,-1,27,29,31,33,-1,35,37,-1,39,-1,-1,-1,-1,-1,-1,-1,-1,-1,-1,-1,-1,-1,-1],"loss_changes":[5.0103292E0,1.8207097E0,1.9298007E0,9.3105507E-1,1.0128144E0,2.1059535E0,1.928916E0,1.02694035E-1,2.3916738E0,0E0,0E0,2.1487129E0,3.5625405E0,1.35899E0,1.6434897E0,0E0,0E0,0E0,8.875947E-1,3.0110226E0,1.624713E-1,2.1909979E-1,0E0,1.9911861E0,5.58661E-1,0E0,1.7591347E0,0E0,0E0,0E0,0E0,0E0,0E0,0E0,0E0,0E0,0E0,0E0,0E0,0E0,0E0],"parents":[2147483647,0,0,1,1,2,2,3,3,4,4,5,5,6,6,7,7,8,8,11,11,12,12,13,13,14,14,18,18,19,19,20,20,21,21,23,23,24,24,26,26],"right_children":[2,4,6,8,10,12,14,16,18,-1,-1,20,22,24,26,-1,-1,-1,28,30,32,34,-1,36,38,-1,40,-1,-1,-1,-1,-1,-1,-1,-1,-1,-1,-1,-1,-1,-1],"split_conditions":[1.2467805E0,3.2366676E0,4.16033E-1,3.085796E0,1.5137771E0,1.9686763E-1,4.7544926E-1,1.5715039E0,4.1215043E0,-2.4317889E-2,1.9445838E-2,4.597067E0,1.901525E0,-1.8157653E0,-4.4999833E0,1.4765053E-2,4.7957104E-2,-2.3172779E-2,-3.110763E-1,7.31835E0,1.3380397E1,1.6629927E0,4.658927E-2,-4.3769603E0,4.204616E0,3.919143E-2,5.258127E-1,4.0709265E-3,4.463908E-2,1.5805729E-4,2.6898984E-2,-2.4895122E-2,-4.61675E-3,-2.3407977E-2,9.234822E-4,-1.9970478E-2,4.5198123E-3,-2.8576655E-2,4.014637E-3,-2.9715493E-2,-9.4910304E-4],"split_indices":[4,3,1,0,1,1,3,0,0,0,0,4,0,3,2,0,0,0,1,3,3,0,0,3,1,0,1,0,0,0,0,0,0,0,0,0,0,0,0,0,0],"split_type":[0,0,0,0,0,0,0,0,0,0,0,0,0,0,0,0,0,0,0,0,0,0,0,0,0,0,0,0,0,0,0,0,0,0,0,0,0,0,0,0,0],"sum_hessian":[3.3319693E2,1.8500307E1,3.1469662E2,1.5038291E1,3.4620168E0,1.7490323E2,1.3979338E2,7.3488736E0,7.689417E0,2.099796E0,1.3622208E0,1.66512E2,8.391243E0,4.680366E1,9.298972E1,1.4389592E0,5.9099145E0,2.006429E0,5.682988E0,1.5754506E2,8.966928E0,3.0227642E0,5.3684783E0,3.1596947E1,1.5206713E1,1.4013699E0,9.158835E1,2.251447E0,3.431541E0,1.4720636E2,1.0338709E1,7.2492504E0,1.7176769E0,1.7353361E0,1.2874281E0,1.547835E1,1.6118597E1,1.4016604E1,1.1901076E0,4.6665087E0,8.6921844E1],"tree_param":{"num_deleted":"0","num_feature":"5","num_nodes":"41","size_leaf_vector":"1"}},{"base_weights":[3.8995163E-3,-1.4865333E-1,1.5354896E-1,-1.770826E-1,4.9371073E-1,9.887477E-2,4.698988E-1,-1.3111532E-1,-2.5399715E-2,3.9389648E-2,9.917966E-4,1.970281E-1,-2.0811325E-1,1.1095186E0,2.0018232E-1,-3.05804E-1,1.1704755E-2,3.158018E-1,-1.2261763E-2,-3.2320362E-1,4.5912844E-1,6.748726E-2,2.2172982E-2,9.8061764E-1,-1.5431519E-1,6.9660433E-3,-1.941233E-2,1.867325E-2,-8.336343E-3,-8.255178E-3,1.953256E-2,-1.9510848E-2,8.863088E-3,-2.5256788E-2,-7.693237E-3,3.196683E-2,4.8363353E-3,7.097941E-3,6.727996E-2,-1.7955005E-2,2.9479591E-2],"categories":[],"categories_nodes":[],"categories_segments":[],"categories_sizes":[],"default_left":[0,0,0,0,0,0,0,0,0,0,0,0,0,0,0,0,0,0,0,0,0,0,0,0,0,0,0,0,0,0,0,0,0,0,0,0,0,0,0,0,0],"id":29,"left_children":[1,3,5,7,9,11,13,15,-1,-1,-1,17,19,21,23,25,27,29,31,33,35,-1,-1,37,39,-1,-1,-1,-1,-1,-1,-1,-1,-1,-1,-1,-1,-1,-1,-1,-1],"loss_changes":[4.2869473E0,1.785819E0,1.5928695E0,1.2992926E0,5.7045066E-1,2.5142202E0,2.1414163E0,2.0042872E0,0E0,0E0,0E0,1.562675E0,1.7127984E0,1.6418457E-2,3.1549993E0,1.3791654E0,2.9723802E0,1.5058379E0,1.7643788E0,4.7564352E-1,1.6086173E-1,0E0,0E0,8.8861084E-1,1.4806792E0,0E0,0E0,0E0,0E0,0E0,0E0,0E0,0E0,0E0,0E0,0E0,0E0,0E0,0E0,0E0,0E0],"parents":[2147483647,0,0,1,1,2,2,3,3,4,4,5,5,6,6,7,7,11,11,12,12,13,13,14,14,15,15,16,16,17,17,18,18,19,19,20,20,23,23,24,24],"right_children":[2,4,6,8,10,12,14,16,-1,-1,-1,18,20,22,24,26,28,30,32,34,36,-1,-1,38,40,-1,-1,-1,-1,-1,-1,-1,-1,-1,-1,-1,-1,-1,-1,-1,-1],"split_conditions":[1.6000226E0,4.9092317E0,4.1651173E0,3.3194132E0,-4.4569774E0,7.029496E0,4.344306E0,1.985735E0,-2.5399715E-2,3.9389648E-2,9.917966E-4,8.205395E-1,8.798771E0,4.2701025E0,-1.2934806E0,-3.0734925E0,2.2059126E0,-2.8905709E0,2.3860967E0,3.5139446E0,3.5091546E0,6.748726E-2,2.2172982E-2,-3.2719237E-1,2.5600507E0,6.9660433E-3,-1.941233E-2,1.867325E-2,-8.336343E-3,-8.255178E-3,1.953256E-2,-1.9510848E-2,8.863088E-3,-2.5256788E-2,-7.693237E-3,3.196683E-2,4.8363353E-3,7.097941E-3,6.727996E-2,-1.7955005E-2,2.9479591E-2],"split_indices":[3,0,4,4,3,3,4,4,0,0,0,1,2,4,1,2,4,2,0,2,4,0,0,2,1,0,0,0,0,0,0,0,0,0,0,0,0,0,0,0,0],"split_type":[0,0,0,0,0,0,0,0,0,0,0,0,0,0,0,0,0,0,0,0,0,0,0,0,0,0,0,0,0,0,0,0,0,0,0,0,0,0,0,0,0],"sum_hessian":[1.8578166E2,9.200168E1,9.3779976E1,8.879613E1,3.2055466E0,8.107967E1,1.2700307E1,7.919175E1,9.604381E0,1.5692409E0,1.6363058E0,6.1707966E1,1.9371708E1,2.8434803E0,9.856827E0,3.5108284E1,4.4083466E1,3.904225E1,2.2665714E1,1.6961658E1,2.4100494E0,1.3353844E0,1.5080959E0,2.52711E0,7.329716E0,5.378534E0,2.972975E1,1.4200234E1,2.9883232E1,5.0958343E0,3.3946415E1,7.216116E0,1.5449598E1,7.2208385E0,9.74082E0,1.0992635E0,1.3107858E0,1.1874714E0,1.3396387E0,6.15314E0,1.1765764E0],"tree_param":{"num_deleted":"0","num_feature":"5","num_nodes":"41","size_leaf_vector":"1"}},{"base_weights":[-1.8681947E-3,1.2050688E-1,-1.0031651E-1,7.9237245E-2,6.1900294E-1,-1.7177026E-1,2.9562512E-2,3.670446E-2,4.2654592E-1,3.3908635E-2,4.28902E-3,-6.167017E-1,-1.4341135E-1,4.2394054E-1,-4.2119883E-2,5.254346E-2,-3.649762E-2,-2.8318569E-2,5.553652E-1,6.464599E-3,-4.0330518E-2,-1.8060373E-1,1.2931295E-1,-1.8249707E-2,3.4237903E-2,5.1502734E-1,-8.59136E-2,-1.4329155E-2,4.5610736E-3,1.5544916E-2,3.4802653E-2,-7.186652E-3,-3.9092664E-2,2.4475487E-2,-1.1768441E-3,-1.5411325E-2,2.3384525E-2,6.069505E-3,3.2273367E-2,-9.547471E-3,1.10578975E-2],"categories":[],"categories_nodes":[],"categories_segments":[],"categories_sizes":[],"default_left":[0,0,0,0,0,0,0,0,0,0,0,0,0,0,0,0,0,0,0,0,0,0,0,0,0,0,0,0,0,0,0,0,0,0,0,0,0,0,0,0,0],"id":30,"left_children":[1,3,5,7,9,11,13,15,17,-1,-1,19,21,23,25,27,-1,-1,29,-1,-1,31,33,35,-1,37,39,-1,-1,-1,-1,-1,-1,-1,-1,-1,-1,-1,-1,-1,-1],"loss_changes":[4.637504E0,3.4816144E0,1.9846618E0,2.342599E0,3.51192E-1,1.6496792E0,2.1821322E0,1.7787015E0,2.5303247E0,0E0,0E0,1.230696E0,1.3501031E0,1.3809311E0,1.6471065E0,1.8802189E0,0E0,0E0,3.2835388E-1,0E0,0E0,2.4485507E0,9.078264E-1,9.017066E-1,0E0,1.7479777E-1,2.0342667E0,0E0,0E0,0E0,0E0,0E0,0E0,0E0,0E0,0E0,0E0,0E0,0E0,0E0,0E0],"parents":[2147483647,0,0,1,1,2,2,3,3,4,4,5,5,6,6,7,7,8,8,11,11,12,12,13,13,14,14,15,15,18,18,21,21,22,22,23,23,25,25,26,26],"right_children":[2,4,6,8,10,12,14,16,18,-1,-1,20,22,24,26,28,-1,-1,30,-1,-1,32,34,36,-1,38,40,-1,-1,-1,-1,-1,-1,-1,-1,-1,-1,-1,-1,-1,-1],"split_conditions":[4.9922398E-1,4.0819936E0,1.2438152E0,2.4452498E0,2.5600507E0,9.108223E-1,2.0423253E0,2.1099982E0,-2.6818428E0,3.3908635E-2,4.28902E-3,-3.3331835E0,1.0301017E1,7.884882E-1,1.1999161E0,1.4100639E0,-3.649762E-2,-2.8318569E-2,2.0454721E0,6.464599E-3,-4.0330518E-2,8.724806E0,3.2619812E0,4.897492E0,3.4237903E-2,5.7322855E0,3.946141E0,-1.4329155E-2,4.5610736E-3,1.5544916E-2,3.4802653E-2,-7.186652E-3,-3.9092664E-2,2.4475487E-2,-1.1768441E-3,-1.5411325E-2,2.3384525E-2,6.069505E-3,3.2273367E-2,-9.547471E-3,1.10578975E-2],"split_indices":[3,4,1,2,1,3,3,2,1,0,0,2,3,3,0,0,0,0,4,0,0,3,2,2,0,3,0,0,0,0,0,0,0,0,0,0,0,0,0,0,0],"split_type":[0,0,0,0,0,0,0,0,0,0,0,0,0,0,0,0,0,0,0,0,0,0,0,0,0,0,0,0,0,0,0,0,0,0,0,0,0,0,0,0,0],"sum_hessian":[3.829277E2,1.7061838E2,2.1230933E2,1.5864351E2,1.1974873E1,1.3675189E2,7.5557434E1,1.423201E2,1.6323397E1,1.0534103E1,1.4407691E0,6.950891E0,1.29801E2,1.0865286E1,6.469215E1,1.4035193E2,1.968183E0,1.4844983E0,1.4838899E1,1.475208E0,5.4756827E0,1.1452113E2,1.5279871E1,4.3760886E0,6.489197E0,3.9302964E0,6.0761852E1,1.3712455E1,1.26639465E2,6.5927753E0,8.246123E0,1.0907154E2,5.449586E0,3.896071E0,1.13838005E1,2.9696875E0,1.406401E0,1.4587507E0,2.471546E0,4.5556957E1,1.5204894E1],"tree_param":{"num_deleted":"0","num_feature":"5","num_nodes":"41","size_leaf_vector":"1"}},{"base_weights":[-2.4992498E-4,4.7664154E-1,-2.980278E-2,6.1517906E-1,-1.3134962E-1,3.8391735E-2,-1.15097396E-1,8.542062E-1,3.1408265E-1,-2.4093404E-2,1.8981708E-2,-1.7671913E-2,2.4973688E-1,-2.742609E-1,-3.361232E-2,1.4404508E-2,4.651537E-2,-2.2974005E-2,6.116548E-1,9.659967E-3,-4.820588E-1,-2.4054453E-1,3.6585593E-1,-3.0063275E-2,-1.7818858E-1,1.1748003E-1,-1.4517497E-1,3.8602282E-3,4.3258395E-2,-2.033699E-3,1.6428763E-2,-2.9398045E-2,1.6284412E-3,1.9696882E-2,-2.863032E-2,4.383299E-4,2.48007E-2,2.1989735E-2,-1.3070039E-2,-2.7220151E-3,2.4752904E-2,-1.7730212E-2,-2.661072E-4],"categories":[],"categories_nodes":[],"categories_segments":[],"categories_sizes":[],"default_left":[0,0,0,0,0,0,0,0,0,0,0,0,0,0,0,0,0,0,0,0,0,0,0,0,0,0,0,0,0,0,0,0,0,0,0,0,0,0,0,0,0,0,0],"id":31,"left_children":[1,3,5,7,9,11,13,15,17,-1,-1,19,21,23,25,-1,-1,-1,27,29,31,33,35,-1,37,39,41,-1,-1,-1,-1,-1,-1,-1,-1,-1,-1,-1,-1,-1,-1,-1,-1],"loss_changes":[4.7176127E0,1.7260699E0,1.8377936E0,8.892927E-1,9.7977716E-1,2.0886793E0,1.8102667E0,9.3221664E-2,2.2835712E0,0E0,0E0,1.7811073E0,2.191355E0,1.3808343E0,1.600308E0,0E0,0E0,0E0,8.4256077E-1,2.150895E0,4.4420826E-1,1.843229E0,1.40243E0,0E0,2.0705714E0,2.6525698E0,1.5937519E0,0E0,0E0,0E0,0E0,0E0,0E0,0E0,0E0,0E0,0E0,0E0,0E0,0E0,0E0,0E0,0E0],"parents":[2147483647,0,0,1,1,2,2,3,3,4,4,5,5,6,6,7,7,8,8,11,11,12,12,13,13,14,14,18,18,19,19,20,20,21,21,22,22,24,24,25,25,26,26],"right_children":[2,4,6,8,10,12,14,16,18,-1,-1,20,22,24,26,-1,-1,-1,28,30,32,34,36,-1,38,40,42,-1,-1,-1,-1,-1,-1,-1,-1,-1,-1,-1,-1,-1,-1,-1,-1],"split_conditions":[1.2467805E0,3.2366676E0,4.16033E-1,3.085796E0,1.5137771E0,4.0959654E0,4.7544926E-1,1.5715039E0,4.1215043E0,-2.4093404E-2,1.8981708E-2,4.597067E0,-4.456692E0,1.8713343E0,2.7479835E0,1.4404508E-2,4.651537E-2,-2.2974005E-2,-3.110763E-1,3.8222349E0,1.3380397E1,-3.123084E0,1.785638E0,-3.0063275E-2,1.9745148E0,2.6583047E0,4.6270256E0,3.8602282E-3,4.3258395E-2,-2.033699E-3,1.6428763E-2,-2.9398045E-2,1.6284412E-3,1.9696882E-2,-2.863032E-2,4.383299E-4,2.48007E-2,2.1989735E-2,-1.3070039E-2,-2.7220151E-3,2.4752904E-2,-1.7730212E-2,-2.661072E-4],"split_indices":[4,3,1,0,1,0,3,0,0,0,0,4,2,4,0,0,0,0,1,2,3,1,4,0,4,1,3,0,0,0,0,0,0,0,0,0,0,0,0,0,0,0,0],"split_type":[0,0,0,0,0,0,0,0,0,0,0,0,0,0,0,0,0,0,0,0,0,0,0,0,0,0,0,0,0,0,0,0,0,0,0,0,0,0,0,0,0,0,0],"sum_hessian":[3.3272873E2,1.8533125E1,3.141956E2,1.5084199E1,3.448925E0,1.7490552E2,1.3929008E2,7.384771E0,7.6994286E0,2.079461E0,1.3694639E0,1.3895992E2,3.5945595E1,4.6363403E1,9.292668E1,1.4421628E0,5.942608E0,1.9878243E0,5.711604E0,1.3216069E2,6.79923E0,6.6780024E0,2.9267593E1,9.33411E0,3.7029293E1,3.944806E1,5.3478626E1,2.2573178E0,3.4542866E0,1.1489883E2,1.7261858E1,5.5206676E0,1.2785625E0,2.2302494E0,4.447753E0,8.103353E0,2.1164242E1,3.8858016E0,3.3143494E1,2.7694092E1,1.1753966E1,2.0798048E1,3.268058E1],"tree_param":{"num_deleted":"0","num_feature":"5","num_nodes":"43","size_leaf_vector":"1"}},{"base_weights":[4.29297E-3,-1.4490893E-1,1.4881197E-1,-1.7316101E-1,4.8213243E-1,9.514319E-2,4.5811284E-1,-1.0520653E-1,-3.9347652E-1,3.8367316E-2,9.243305E-4,1.8960114E-1,-2.0472802E-1,1.07228E0,1.9527864E-1,-1.6212434E-1,3.367965E-1,2.7933659E-3,-4.3182352E-1,-8.963426E-2,2.733743E-1,-3.1960526E-1,4.4854376E-1,6.512249E-2,2.1606512E-2,9.43789E-1,-1.5276435E-1,-4.410544E-3,-2.2464335E-2,8.1144174E-4,4.120887E-2,-2.3536341E-2,-6.4640166E-3,4.0488094E-2,-1.5201526E-2,-1.6047228E-2,2.0670293E-2,-2.5131494E-2,-7.5454316E-3,4.5875497E-3,3.1434458E-2,6.8919235E-3,6.443438E-2,-1.7832747E-2,2.8721532E-2],"categories":[],"categories_nodes":[],"categories_segments":[],"categories_sizes":[],"default_left":[0,0,0,0,0,0,0,0,0,0,0,0,0,0,0,0,0,0,0,0,0,0,0,0,0,0,0,0,0,0,0,0,0,0,0,0,0,0,0,0,0,0,0,0,0],"id":32,"left_children":[1,3,5,7,9,11,13,15,17,-1,-1,19,21,23,25,27,29,-1,31,33,35,37,39,-1,-1,41,43,-1,-1,-1,-1,-1,-1,-1,-1,-1,-1,-1,-1,-1,-1,-1,-1,-1,-1],"loss_changes":[4.043066E0,1.7181069E0,1.5372508E0,1.2915046E0,5.4682636E-1,2.373193E0,2.0213172E0,1.8007448E0,3.794651E-1,0E0,0E0,1.5026987E0,1.6609523E0,1.4583588E-2,2.983809E0,1.2798169E0,1.2745116E0,0E0,1.6412926E-1,3.2033885E0,4.198572E0,4.7317553E-1,1.6344184E-1,0E0,0E0,8.227823E-1,1.4356687E0,0E0,0E0,0E0,0E0,0E0,0E0,0E0,0E0,0E0,0E0,0E0,0E0,0E0,0E0,0E0,0E0,0E0,0E0],"parents":[2147483647,0,0,1,1,2,2,3,3,4,4,5,5,6,6,7,7,8,8,11,11,12,12,13,13,14,14,15,15,16,16,18,18,19,19,20,20,21,21,22,22,25,25,26,26],"right_children":[2,4,6,8,10,12,14,16,18,-1,-1,20,22,24,26,28,30,-1,32,34,36,38,40,-1,-1,42,44,-1,-1,-1,-1,-1,-1,-1,-1,-1,-1,-1,-1,-1,-1,-1,-1,-1,-1],"split_conditions":[1.6000226E0,4.9092317E0,4.1651173E0,1.0328476E0,-4.4569774E0,7.029496E0,4.344306E0,5.9124373E-2,-4.69073E0,3.8367316E-2,9.243305E-4,1.7756793E0,8.798771E0,4.2701025E0,-1.2934806E0,-8.1563973E-1,-1.1524261E-1,2.7933659E-3,2.8404882E0,-1.7939304E0,-7.795384E-1,3.5139446E0,3.3886213E0,6.512249E-2,2.1606512E-2,-3.2719237E-1,2.5600507E0,-4.410544E-3,-2.2464335E-2,8.1144174E-4,4.120887E-2,-2.3536341E-2,-6.4640166E-3,4.0488094E-2,-1.5201526E-2,-1.6047228E-2,2.0670293E-2,-2.5131494E-2,-7.5454316E-3,4.5875497E-3,3.1434458E-2,6.8919235E-3,6.443438E-2,-1.7832747E-2,2.8721532E-2],"split_indices":[3,0,4,2,3,3,4,2,3,0,0,4,2,4,1,3,3,0,1,2,2,2,0,0,0,2,1,0,0,0,0,0,0,0,0,0,0,0,0,0,0,0,0,0,0],"split_type":[0,0,0,0,0,0,0,0,0,0,0,0,0,0,0,0,0,0,0,0,0,0,0,0,0,0,0,0,0,0,0,0,0,0,0,0,0,0,0,0,0,0,0,0,0],"sum_hessian":[1.8550435E2,9.1272064E1,9.423229E1,8.8029625E1,3.2424335E0,8.1413345E1,1.2818943E1,6.840745E1,1.9622183E1,1.6019559E0,1.6404775E0,6.2191162E1,1.9222185E1,2.9188218E0,9.900121E0,6.1164364E1,7.24308E0,1.5069624E0,1.8115221E1,1.4335995E1,4.7855167E1,1.6781872E1,2.4403143E0,1.3859082E0,1.5329134E0,2.5989814E0,7.30114E0,4.9683407E1,1.1480959E1,4.9925814E0,2.2504992E0,1.555867E1,2.5565505E0,2.2250266E0,1.2110968E1,8.879031E0,3.897614E1,7.09969E0,9.682181E0,1.3251206E0,1.1151938E0,1.1983516E0,1.4006298E0,6.1002903E0,1.2008493E0],"tree_param":{"num_deleted":"0","num_feature":"5","num_nodes":"45","size_leaf_vector":"1"}},{"base_weights":[-2.0428665E-3,1.1591226E-1,-9.6714035E-2,7.559983E-2,6.0829335E-1,-1.6504097E-1,3.2737058E-2,3.405253E-2,4.1725278E-1,3.3388905E-2,4.05197E-3,-6.0598207E-1,-1.3742985E-1,4.5091885E-1,-4.693647E-2,4.9563468E-2,-3.570413E-2,-2.7863342E-2,5.44616E-1,6.3374685E-3,-3.963381E-2,-1.0609979E-1,-4.318989E-1,6.380168E-1,-9.659561E-3,-3.2776067E-1,6.495705E-2,-1.40934875E-2,4.3731574E-3,1.5075499E-2,3.4284495E-2,1.8360963E-2,